{"learner":{"attributes":{"scikit_learn":"{\"_estimator_type\": \"classifier\"}"},"feature_names":["Pressure(Bar)","Drift_Velocity","Confidence_R2","Quench Temp(C)","Scan Speed"],"feature_types":["float","float","float","float","float"],"gradient_booster":{"model":{"cats":{"enc":[],"feature_segments":[],"sorted_idx":[]},"gbtree_model_param":{"num_parallel_tree":"1","num_trees":"100"},"iteration_indptr":[0,1,2,3,4,5,6,7,8,9,10,11,12,13,14,15,16,17,18,19,20,21,22,23,24,25,26,27,28,29,30,31,32,33,34,35,36,37,38,39,40,41,42,43,44,45,46,47,48,49,50,51,52,53,54,55,56,57,58,59,60,61,62,63,64,65,66,67,68,69,70,71,72,73,74,75,76,77,78,79,80,81,82,83,84,85,86,87,88,89,90,91,92,93,94,95,96,97,98,99,100],"tree_info":[0,0,0,0,0,0,0,0,0,0,0,0,0,0,0,0,0,0,0,0,0,0,0,0,0,0,0,0,0,0,0,0,0,0,0,0,0,0,0,0,0,0,0,0,0,0,0,0,0,0,0,0,0,0,0,0,0,0,0,0,0,0,0,0,0,0,0,0,0,0,0,0,0,0,0,0,0,0,0,0,0,0,0,0,0,0,0,0,0,0,0,0,0,0,0,0,0,0,0,0],"trees":[{"base_weights":[2.4255051E-8,-3.5533243E-1,3.0054953E0,2.9831076E0,-6.066101E-1,2.2000523E0,3.034354E-1,3.0316737E-1,2.1773322E0,-6.812622E-1,7.615102E-1,2.2641778E0,1.6833484E-2,2.78099E-1,1.7492998E0,2.9102826E0,-7.121811E-1,2.981158E0,-1.4708271E0,2.7902475E-1,1.8510485E0,3.718297E-1,2.5862577E0,2.979601E-1,1.3178191E0,-7.2468394E-1,2.6963077E0,-3.221808E-2,3.0206117E-1,-1.4821446E-1,1.6833484E-2,1.0416224E0,2.6363584E-1,-3.221808E-2,6.0163736E-2,2.7086917E-1,6.436037E-2,4.4089306E-2,1.578412E-1,1.8947338E-1,-7.30363E-2,9.6132435E-2,2.8909135E-1,1.9316411E-1,5.8480073E-2],"categories":[],"categories_nodes":[],"categories_segments":[],"categories_sizes":[],"default_left":[0,0,0,0,0,0,0,0,0,0,0,0,0,0,0,0,0,0,0,0,0,0,0,0,0,0,0,0,0,0,0,0,0,0,0,0,0,0,0,0,0,0,0,0,0],"id":0,"left_children":[1,3,5,7,9,11,-1,-1,13,15,17,19,-1,-1,21,23,25,27,29,-1,31,33,35,-1,37,39,41,-1,-1,-1,-1,43,-1,-1,-1,-1,-1,-1,-1,-1,-1,-1,-1,-1,-1],"loss_changes":[8.708803E3,6.119322E3,1.3364258E1,1.3381836E1,6.932744E2,3.9781647E0,0E0,0E0,3.5525055E0,7.163733E2,1.7457341E3,1.8671112E0,0E0,0E0,2.4121155E1,2.1557312E0,2.7377295E2,2.3982178E1,3.5123901E0,0E0,1.0662399E1,1.6915886E0,1.435646E0,0E0,2.3905993E-1,9.593042E1,5.1631775E0,0E0,0E0,0E0,0E0,3.7658892E0,0E0,0E0,0E0,0E0,0E0,0E0,0E0,0E0,0E0,0E0,0E0,0E0,0E0],"parents":[2147483647,0,0,1,1,2,2,3,3,4,4,5,5,8,8,9,9,10,10,11,11,14,14,15,15,16,16,17,17,18,18,20,20,21,21,22,22,24,24,25,25,26,26,31,31],"right_children":[2,4,6,8,10,12,-1,-1,14,16,18,20,-1,-1,22,24,26,28,30,-1,32,34,36,-1,38,40,42,-1,-1,-1,-1,44,-1,-1,-1,-1,-1,-1,-1,-1,-1,-1,-1,-1,-1],"split_conditions":[4.0422688E0,2.9674983E0,4.4768605E0,2.520064E0,8.0022246E-1,2.9351395E-1,3.034354E-1,3.0316737E-1,8.259496E0,8.259496E0,-4.8950203E-2,9.066065E0,1.6833484E-2,2.78099E-1,1.0432051E1,7.7302737E0,1.181903E1,-3.4704915E-1,3.2496926E-1,2.7902475E-1,1.0709421E1,1.15018394E2,2.9040128E-1,2.979601E-1,1.17521935E2,1.0266309E2,1.2382659E1,-3.221808E-2,3.0206117E-1,-1.4821446E-1,1.6833484E-2,1.1699673E2,2.6363584E-1,-3.221808E-2,6.0163736E-2,2.7086917E-1,6.436037E-2,4.4089306E-2,1.578412E-1,1.8947338E-1,-7.30363E-2,9.6132435E-2,2.8909135E-1,1.9316411E-1,5.8480073E-2],"split_indices":[0,0,0,0,2,1,0,0,4,4,1,4,0,0,4,4,4,1,1,0,4,3,2,0,3,3,4,0,0,0,0,3,0,0,0,0,0,0,0,0,0,0,0,0,0],"split_type":[0,0,0,0,0,0,0,0,0,0,0,0,0,0,0,0,0,0,0,0,0,0,0,0,0,0,0,0,0,0,0,0,0,0,0,0,0,0,0,0,0,0,0,0,0],"sum_hessian":[8.1526914E3,7.291515E3,8.6117645E2,5.0963983E2,6.781875E3,3.245973E1,8.2871674E2,4.7806335E2,3.1576471E1,6.4314424E3,3.504326E2,3.1355656E1,1.1040725E0,1.081991E1,2.0756561E1,5.409955E1,6.3773433E3,1.7554752E2,1.7488507E2,1.12615385E1,2.0094118E1,8.39095E0,1.2365611E1,5.1008144E1,3.0914028E0,6.35482E3,2.2523077E1,1.9873303E0,1.7356018E2,1.7378099E2,1.1040725E0,1.1040724E1,9.053393E0,1.9873303E0,6.40362E0,1.12615385E1,1.1040725E0,1.3248869E0,1.7665159E0,1.3028054E1,6.341792E3,2.8705883E0,1.9652489E1,2.6497738E0,8.39095E0],"tree_param":{"num_deleted":"0","num_feature":"5","num_nodes":"45","size_leaf_vector":"1"}},{"base_weights":[-3.1610604E-3,-3.266806E-1,2.4812796E0,2.4650798E0,-5.597264E-1,1.8876356E0,2.5018415E-1,2.5002095E-1,1.8632649E0,-6.2938106E-1,6.6646284E-1,2.0461743E0,9.882163E-1,2.3428349E-1,1.5141941E0,2.4204578E0,-6.584879E-1,2.4631693E0,-1.4030315E0,9.35904E-1,2.1282928E-1,5.048872E-1,1.6351597E-1,3.3342424E-1,2.1935391E0,2.4682832E-1,1.2021056E0,-6.703039E-1,2.2663155E0,-3.031199E-2,2.49346E-1,-1.4144781E-1,1.5900053E-2,1.2462574E-1,1.1291332E-2,-2.1450819E-1,1.5420419E-1,-3.39863E-2,5.5915046E-2,2.2841159E-1,6.027339E-2,4.1211944E-2,1.4298394E-1,1.6254568E-1,-6.756893E-2,8.687522E-2,2.412989E-1,4.1766107E-2,-8.805161E-2],"categories":[],"categories_nodes":[],"categories_segments":[],"categories_sizes":[],"default_left":[0,0,0,0,0,0,0,0,0,0,0,0,0,0,0,0,0,0,0,0,0,0,0,0,0,0,0,0,0,0,0,0,0,0,0,0,0,0,0,0,0,0,0,0,0,0,0,0,0],"id":1,"left_children":[1,3,5,7,9,11,-1,-1,13,15,17,19,21,-1,23,25,27,29,31,33,-1,35,-1,37,39,-1,41,43,45,-1,-1,-1,-1,-1,-1,47,-1,-1,-1,-1,-1,-1,-1,-1,-1,-1,-1,-1,-1],"loss_changes":[6.5266445E3,4.675689E3,6.6972656E0,7.0480957E0,5.668406E2,3.024788E0,0E0,0E0,2.2219849E0,5.5870874E2,1.3307341E3,6.663437E-1,1.4376225E0,0E0,1.7536331E1,5.0231934E-1,2.1638428E2,1.6796875E1,3.2023926E0,8.28032E-1,0E0,4.5012517E0,0E0,1.633297E0,6.8045044E-1,0E0,1.6605759E-1,7.766724E1,3.0784454E0,0E0,0E0,0E0,0E0,0E0,0E0,2.1269066E0,0E0,0E0,0E0,0E0,0E0,0E0,0E0,0E0,0E0,0E0,0E0,0E0,0E0],"parents":[2147483647,0,0,1,1,2,2,3,3,4,4,5,5,8,8,9,9,10,10,11,11,12,12,14,14,15,15,16,16,17,17,18,18,19,19,21,21,23,23,24,24,26,26,27,27,28,28,35,35],"right_children":[2,4,6,8,10,12,-1,-1,14,16,18,20,22,-1,24,26,28,30,32,34,-1,36,-1,38,40,-1,42,44,46,-1,-1,-1,-1,-1,-1,48,-1,-1,-1,-1,-1,-1,-1,-1,-1,-1,-1,-1,-1],"split_conditions":[4.0422688E0,2.9674983E0,4.4768605E0,2.520064E0,8.0022246E-1,1.2780677E-1,2.5018415E-1,2.5002095E-1,8.259496E0,8.259496E0,-4.8950203E-2,-1.4549933E-1,1.8513481E-1,2.3428349E-1,1.0432051E1,7.7302737E0,1.181903E1,-3.4704915E-1,3.2496926E-1,1.2361045E2,2.1282928E-1,1.0691976E1,1.6351597E-1,9.360351E0,2.9040128E-1,2.4682832E-1,1.17521935E2,1.0266309E2,1.2382659E1,-3.031199E-2,2.49346E-1,-1.4144781E-1,1.5900053E-2,1.2462574E-1,1.1291332E-2,9.867607E0,1.5420419E-1,-3.39863E-2,5.5915046E-2,2.2841159E-1,6.027339E-2,4.1211944E-2,1.4298394E-1,1.6254568E-1,-6.756893E-2,8.687522E-2,2.412989E-1,4.1766107E-2,-8.805161E-2],"split_indices":[0,0,0,0,2,1,0,0,4,4,1,1,2,0,4,4,4,1,1,3,0,4,0,4,2,0,3,3,4,0,0,0,0,0,0,4,0,0,0,0,0,0,0,0,0,0,0,0,0],"split_type":[0,0,0,0,0,0,0,0,0,0,0,0,0,0,0,0,0,0,0,0,0,0,0,0,0,0,0,0,0,0,0,0,0,0,0,0,0,0,0,0,0,0,0,0,0,0,0,0,0],"sum_hessian":[8.118081E3,7.1835234E3,9.3455743E2,5.5271576E2,6.6308076E3,3.43934E1,9.0016406E2,5.192512E2,3.346453E1,6.2748467E3,3.559609E2,2.8155497E1,6.2379007E0,1.1691103E1,2.1773428E1,5.854271E1,6.216304E3,1.9043642E2,1.655245E2,2.7928069E0,2.536269E1,4.5895123E0,1.6483886E0,8.496485E0,1.3276943E1,5.5344296E1,3.1984122E0,6.1920596E3,2.4244492E1,1.9651246E0,1.884713E2,1.6441412E2,1.1103712E0,1.6545614E0,1.1382453E0,3.1782074E0,1.4113048E0,2.0063574E0,6.490127E0,1.2149363E1,1.1275809E0,1.3444164E0,1.8539959E0,1.37873745E1,6.178272E3,2.9603295E0,2.1284163E1,1.8218299E0,1.3563775E0],"tree_param":{"num_deleted":"0","num_feature":"5","num_nodes":"49","size_leaf_vector":"1"}},{"base_weights":[-4.420801E-3,-3.0105063E-1,2.1521726E0,2.139253E0,-5.171671E-1,1.6573087E0,2.1692577E-1,2.1680586E-1,1.6413455E0,-5.8172774E-1,6.0059357E-1,2.1098737E-1,1.3248066E0,2.051744E-1,1.3402028E0,2.1070626E-1,-6.0898113E-1,2.1376493E0,-1.3467879E0,6.50887E-1,2.0093477E-1,2.991485E-1,1.9258215E0,-6.200846E-1,1.981169E0,-2.8520515E-2,2.1631001E-1,-1.3584909E-1,1.5019603E-2,9.7003514E-1,-3.7230518E-1,6.645E-3,1.08787075E-1,7.227268E-2,2.0284049E-1,1.4233927E-1,-6.2516965E-2,7.885617E-2,2.1037844E-1,-1.4564671E-2,1.3960162E-1,1.9074278E-2,-8.443645E-2],"categories":[],"categories_nodes":[],"categories_segments":[],"categories_sizes":[],"default_left":[0,0,0,0,0,0,0,0,0,0,0,0,0,0,0,0,0,0,0,0,0,0,0,0,0,0,0,0,0,0,0,0,0,0,0,0,0,0,0,0,0,0,0],"id":2,"left_children":[1,3,5,7,9,11,-1,-1,13,15,17,-1,19,-1,21,-1,23,25,27,29,-1,31,33,35,37,-1,-1,-1,-1,39,41,-1,-1,-1,-1,-1,-1,-1,-1,-1,-1,-1,-1],"loss_changes":[5.126417E3,3.716399E3,4.5976562E0,4.6643066E0,4.674165E2,2.7084656E0,0E0,0E0,1.6340714E0,4.4970703E2,1.0622296E3,0E0,9.658428E0,0E0,1.3654827E1,0E0,1.7547778E2,1.2837524E1,2.949829E0,4.755757E0,0E0,1.6873283E0,3.5504532E-1,6.3586914E1,2.157753E0,0E0,0E0,0E0,0E0,5.2103777E0,1.2035667E0,0E0,0E0,0E0,0E0,0E0,0E0,0E0,0E0,0E0,0E0,0E0,0E0],"parents":[2147483647,0,0,1,1,2,2,3,3,4,4,5,5,8,8,9,9,10,10,12,12,14,14,16,16,17,17,18,18,19,19,21,21,22,22,23,23,24,24,29,29,30,30],"right_children":[2,4,6,8,10,12,-1,-1,14,16,18,-1,20,-1,22,-1,24,26,28,30,-1,32,34,36,38,-1,-1,-1,-1,40,42,-1,-1,-1,-1,-1,-1,-1,-1,-1,-1,-1,-1],"split_conditions":[4.0422688E0,2.9674983E0,4.4768605E0,2.520064E0,8.0022246E-1,9.066065E0,2.1692577E-1,2.1680586E-1,8.259496E0,8.259496E0,-4.8950203E-2,2.1098737E-1,1.0709421E1,2.051744E-1,1.0432051E1,2.1070626E-1,1.181903E1,-3.4704915E-1,3.2496926E-1,9.751166E-2,2.0093477E-1,1.22200474E-1,-1.6708747E-1,1.0266309E2,1.2382659E1,-2.8520515E-2,2.1631001E-1,-1.3584909E-1,1.5019603E-2,-4.600386E-2,9.867607E0,6.645E-3,1.08787075E-1,7.227268E-2,2.0284049E-1,1.4233927E-1,-6.2516965E-2,7.885617E-2,2.1037844E-1,-1.4564671E-2,1.3960162E-1,1.9074278E-2,-8.443645E-2],"split_indices":[0,0,0,0,2,4,0,0,4,4,1,0,4,0,4,0,4,1,1,1,0,1,1,3,4,0,0,0,0,1,4,0,0,0,0,0,0,0,0,0,0,0,0],"split_type":[0,0,0,0,0,0,0,0,0,0,0,0,0,0,0,0,0,0,0,0,0,0,0,0,0,0,0,0,0,0,0,0,0,0,0,0,0,0,0,0,0,0,0],"sum_hessian":[8.011647E3,7.04368E3,9.679665E2,5.723237E2,6.4713564E3,3.5574085E1,9.323924E2,5.3785254E2,3.447118E1,6.1184414E3,3.529151E2,1.2802836E1,2.2771248E1,1.2128802E1,2.2342379E1,6.062798E1,6.0578135E3,1.9718251E2,1.5573259E2,1.2457692E1,1.0313557E1,8.587394E0,1.3754985E1,6.032713E3,2.510044E1,1.9436545E0,1.9523885E2,1.5461638E2,1.1162246E0,9.535414E0,2.9222784E0,7.4682646E0,1.1191287E0,1.7127833E0,1.2042201E1,1.4282346E1,6.0184307E3,3.0328526E0,2.2067587E1,2.8165946E0,6.718819E0,1.6044763E0,1.317802E0],"tree_param":{"num_deleted":"0","num_feature":"5","num_nodes":"43","size_leaf_vector":"1"}},{"base_weights":[-4.7228183E-3,-2.7790558E-1,1.9256617E0,1.9146954E0,-4.7821626E-1,1.4839783E0,1.9410428E-1,1.940046E-1,1.4779185E0,-5.377239E-1,5.5204815E-1,1.8872532E-1,1.1877811E0,1.5698434E0,6.9660485E-1,1.882886E0,-5.6310487E-1,1.9133065E0,-1.2994865E0,5.842703E-1,1.7977461E-1,3.8894024E-2,1.6036122E-1,-4.210265E-2,1.0869387E0,1.9240819E-1,9.089148E-1,-5.7349044E-1,1.7769501E0,-4.670733E-2,1.9336694E-1,-1.3115583E-1,1.4188953E-2,8.7172467E-1,-3.5503548E-1,3.4558967E-2,1.2604594E-1,2.5241053E-2,1.1407726E-1,1.2645304E-1,-5.782741E-2,7.183597E-2,1.8868008E-1,-1.3526894E-2,1.2478148E-1,1.7837355E-2,-8.110943E-2],"categories":[],"categories_nodes":[],"categories_segments":[],"categories_sizes":[],"default_left":[0,0,0,0,0,0,0,0,0,0,0,0,0,0,0,0,0,0,0,0,0,0,0,0,0,0,0,0,0,0,0,0,0,0,0,0,0,0,0,0,0,0,0,0,0,0,0],"id":3,"left_children":[1,3,5,7,9,11,-1,-1,13,15,17,-1,19,21,23,25,27,29,31,33,-1,-1,-1,-1,35,-1,37,39,41,-1,-1,-1,-1,43,45,-1,-1,-1,-1,-1,-1,-1,-1,-1,-1,-1,-1],"loss_changes":[4.1452007E3,3.0252424E3,3.739746E0,3.5175781E0,3.8717493E2,2.182747E0,0E0,0E0,1.4797897E0,3.6761304E2,8.7221484E2,0E0,7.8041267E0,6.2286377E-1,2.8873088E0,7.4446106E-1,1.4453027E2,1.0562012E1,2.740448E0,3.9740558E0,0E0,0E0,0E0,0E0,1.3131571E-1,0E0,3.8439155E-1,5.242859E1,1.7071533E0,0E0,0E0,0E0,0E0,4.2140083E0,1.0911764E0,0E0,0E0,0E0,0E0,0E0,0E0,0E0,0E0,0E0,0E0,0E0,0E0],"parents":[2147483647,0,0,1,1,2,2,3,3,4,4,5,5,8,8,9,9,10,10,12,12,13,13,14,14,15,15,16,16,17,17,18,18,19,19,24,24,26,26,27,27,28,28,33,33,34,34],"right_children":[2,4,6,8,10,12,-1,-1,14,16,18,-1,20,22,24,26,28,30,32,34,-1,-1,-1,-1,36,-1,38,40,42,-1,-1,-1,-1,44,46,-1,-1,-1,-1,-1,-1,-1,-1,-1,-1,-1,-1],"split_conditions":[4.0422688E0,2.9674983E0,4.4768605E0,2.520064E0,8.0022246E-1,9.066065E0,1.9410428E-1,1.940046E-1,1.3641672E-1,8.259496E0,-4.8950203E-2,1.8872532E-1,1.0709421E1,3.4920213E-5,2.2001357E-1,7.7302737E0,1.181903E1,-4.5434752E-1,3.2496926E-1,9.751166E-2,1.7977461E-1,3.8894024E-2,1.6036122E-1,-4.210265E-2,-2.5742102E-1,1.9240819E-1,1.17521935E2,1.0266309E2,1.2382659E1,-4.670733E-2,1.9336694E-1,-1.3115583E-1,1.4188953E-2,-4.600386E-2,9.867607E0,3.4558967E-2,1.2604594E-1,2.5241053E-2,1.1407726E-1,1.2645304E-1,-5.782741E-2,7.183597E-2,1.8868008E-1,-1.3526894E-2,1.2478148E-1,1.7837355E-2,-8.110943E-2],"split_indices":[0,0,0,0,2,4,0,0,2,4,1,0,4,2,2,4,4,1,1,1,0,0,0,0,1,0,3,3,4,0,0,0,0,1,4,0,0,0,0,0,0,0,0,0,0,0,0],"split_type":[0,0,0,0,0,0,0,0,0,0,0,0,0,0,0,0,0,0,0,0,0,0,0,0,0,0,0,0,0,0,0,0,0,0,0,0,0,0,0,0,0,0,0,0,0,0,0],"sum_hessian":[7.858454E3,6.8849683E3,9.734859E2,5.756244E2,6.3093438E3,3.604005E1,9.3744586E2,5.407948E2,3.482959E1,5.9652705E3,3.4407327E2,1.2986799E1,2.3053251E1,3.026012E1,4.5694714E0,6.1139652E1,5.904131E3,1.9827042E2,1.4580284E2,1.2572077E1,1.0481174E1,1.189254E0,2.9070866E1,1.1624453E0,3.4070263E0,5.7722664E1,3.4169846E0,5.8787944E3,2.5336178E1,1.4956437E0,1.9677478E2,1.4468118E2,1.1216663E0,9.681278E0,2.8907993E0,1.2136152E0,2.193411E0,1.43694E0,1.9800446E0,1.4576737E1,5.864218E3,3.0907896E0,2.2245388E1,2.8066661E0,6.874612E0,1.6130486E0,1.2777507E0],"tree_param":{"num_deleted":"0","num_feature":"5","num_nodes":"47","size_leaf_vector":"1"}},{"base_weights":[-4.4968794E-3,-2.5681165E-1,1.760252E0,1.7489909E0,-4.422843E-1,1.3489634E0,1.7747998E-1,1.7738977E-1,1.3313626E0,-4.968721E-1,5.1464957E-1,1.3898282E0,4.298871E-3,1.7201626E-1,1.0606924E0,1.7214885E0,-5.204397E-1,1.7489197E0,-1.259235E0,1.7260985E-1,1.1383977E0,1.56911E-1,1.5917463E0,1.758955E-1,8.448188E-1,-5.301161E-1,1.6227542E0,-4.62047E-2,1.7681561E-1,-1.27178E-1,1.34051535E-2,1.6250372E-1,8.2250255E-1,-5.4846243E-3,9.323565E-2,1.6696401E-1,3.9416973E-2,2.3678636E-2,1.0588576E-1,1.1351427E-1,-5.346014E-2,6.563463E-2,1.7260537E-1,3.180141E-2,1.5822583E-1],"categories":[],"categories_nodes":[],"categories_segments":[],"categories_sizes":[],"default_left":[0,0,0,0,0,0,0,0,0,0,0,0,0,0,0,0,0,0,0,0,0,0,0,0,0,0,0,0,0,0,0,0,0,0,0,0,0,0,0,0,0,0,0,0,0],"id":4,"left_children":[1,3,5,7,9,11,-1,-1,13,15,17,19,-1,-1,21,23,25,27,29,-1,31,33,35,-1,37,39,41,-1,-1,-1,-1,-1,43,-1,-1,-1,-1,-1,-1,-1,-1,-1,-1,-1,-1],"loss_changes":[3.4186877E3,2.4997612E3,3.352539E0,3.5544434E0,3.2148975E2,1.9137344E0,0E0,0E0,1.9660301E0,3.050797E2,7.298853E2,1.0639191E0,0E0,0E0,1.1194481E1,5.305176E-1,1.20267456E2,9.170349E0,2.564209E0,0E0,2.2660007E0,1.6824422E0,7.327194E-1,0E0,3.2716846E-1,4.342517E1,1.4752045E0,0E0,0E0,0E0,0E0,0E0,5.7196484E0,0E0,0E0,0E0,0E0,0E0,0E0,0E0,0E0,0E0,0E0,0E0,0E0],"parents":[2147483647,0,0,1,1,2,2,3,3,4,4,5,5,8,8,9,9,10,10,11,11,14,14,15,15,16,16,17,17,18,18,20,20,21,21,22,22,24,24,25,25,26,26,32,32],"right_children":[2,4,6,8,10,12,-1,-1,14,16,18,20,-1,-1,22,24,26,28,30,-1,32,34,36,-1,38,40,42,-1,-1,-1,-1,-1,44,-1,-1,-1,-1,-1,-1,-1,-1,-1,-1,-1,-1],"split_conditions":[4.0422688E0,2.9674983E0,4.4768605E0,2.520064E0,8.0022246E-1,2.9351395E-1,1.7747998E-1,1.7738977E-1,8.259496E0,8.259496E0,-4.8950203E-2,1.1699673E2,4.298871E-3,1.7201626E-1,1.0432051E1,7.7302737E0,1.181903E1,1.2098417E2,3.2496926E-1,1.7260985E-1,9.037449E0,1.22200474E-1,2.9040128E-1,1.758955E-1,1.17521935E2,1.0266309E2,1.2382659E1,-4.62047E-2,1.7681561E-1,-1.27178E-1,1.34051535E-2,1.6250372E-1,1.1090162E1,-5.4846243E-3,9.323565E-2,1.6696401E-1,3.9416973E-2,2.3678636E-2,1.0588576E-1,1.1351427E-1,-5.346014E-2,6.563463E-2,1.7260537E-1,3.180141E-2,1.5822583E-1],"split_indices":[0,0,0,0,2,1,0,0,4,4,1,3,0,0,4,4,4,3,1,0,4,1,2,0,3,3,4,0,0,0,0,0,4,0,0,0,0,0,0,0,0,0,0,0,0],"split_type":[0,0,0,0,0,0,0,0,0,0,0,0,0,0,0,0,0,0,0,0,0,0,0,0,0,0,0,0,0,0,0,0,0,0,0,0,0,0,0,0,0,0,0,0,0],"sum_hessian":[7.675733E3,6.716322E3,9.5941095E2,5.6776544E2,6.148556E3,3.5978344E1,9.2343256E2,5.327457E2,3.5019703E1,5.8171978E3,3.313584E2,3.4824455E1,1.1538887E0,1.2175379E1,2.2844322E1,6.0394234E1,5.7568037E3,1.9540767E2,1.3595073E2,1.2389407E1,2.2435051E1,8.934497E0,1.3909825E1,5.6953785E1,3.4404504E0,5.731678E3,2.512544E1,1.4869075E0,1.9392076E2,1.34824E2,1.1267264E0,7.1996646E0,1.5235386E1,7.7479672E0,1.1865296E0,1.2690234E1,1.2195914E0,1.4441752E0,1.9962751E0,1.4719396E1,5.716959E3,3.1364543E0,2.1988985E1,1.0008306E1,5.227081E0],"tree_param":{"num_deleted":"0","num_feature":"5","num_nodes":"45","size_leaf_vector":"1"}},{"base_weights":[-3.9103082E-3,-2.3741013E-1,1.634311E0,1.623628E0,-4.089847E-1,1.2405441E0,1.64857E-1,1.6477048E-1,1.2273476E0,-4.5885286E-1,4.850212E-1,1.6008617E-1,9.837397E-1,9.8932016E-1,1.625217E-1,1.5973614E0,-4.8066598E-1,1.6235843E0,-1.2246251E0,4.6581894E-1,1.5241502E-1,1.5920101E-1,3.074175E-1,1.6329502E-1,7.8766835E-1,-4.896518E-1,1.5016547E0,-2.7794817E-2,1.6444127E-1,-1.2377434E-1,1.2665443E-2,7.249224E-1,-3.716563E-1,5.383567E-2,-6.900724E-2,2.2218097E-2,9.8705105E-2,1.02680996E-1,-4.93845E-2,6.011447E-2,1.6022204E-1,-1.6612293E-2,1.0620272E-1,1.379096E-2,-8.0100976E-2],"categories":[],"categories_nodes":[],"categories_segments":[],"categories_sizes":[],"default_left":[0,0,0,0,0,0,0,0,0,0,0,0,0,0,0,0,0,0,0,0,0,0,0,0,0,0,0,0,0,0,0,0,0,0,0,0,0,0,0,0,0,0,0,0,0],"id":5,"left_children":[1,3,5,7,9,11,-1,-1,13,15,17,-1,19,21,-1,23,25,27,29,31,-1,-1,33,-1,35,37,39,-1,-1,-1,-1,41,43,-1,-1,-1,-1,-1,-1,-1,-1,-1,-1,-1,-1],"loss_changes":[2.860208E3,2.0903313E3,3.1921387E0,3.2503662E0,2.673949E2,1.8152924E0,0E0,0E0,1.7609596E0,2.5538E2,6.1924615E2,0E0,6.003357E0,9.707985E0,0E0,4.3751526E-1,1.0080432E2,8.012756E0,2.4139252E0,3.239577E0,0E0,0E0,3.3386765E0,0E0,2.8247166E-1,3.607373E1,1.3548584E0,0E0,0E0,0E0,0E0,3.4182396E0,9.6269155E-1,0E0,0E0,0E0,0E0,0E0,0E0,0E0,0E0,0E0,0E0,0E0,0E0],"parents":[2147483647,0,0,1,1,2,2,3,3,4,4,5,5,8,8,9,9,10,10,12,12,13,13,15,15,16,16,17,17,18,18,19,19,22,22,24,24,25,25,26,26,31,31,32,32],"right_children":[2,4,6,8,10,12,-1,-1,14,16,18,-1,20,22,-1,24,26,28,30,32,-1,-1,34,-1,36,38,40,-1,-1,-1,-1,42,44,-1,-1,-1,-1,-1,-1,-1,-1,-1,-1,-1,-1],"split_conditions":[4.0422688E0,2.9674983E0,4.4768605E0,2.520064E0,8.0022246E-1,9.066065E0,1.64857E-1,1.6477048E-1,1.12472315E1,8.259496E0,-4.8950203E-2,1.6008617E-1,1.0709421E1,8.259496E0,1.625217E-1,7.7302737E0,1.181903E1,-3.4704915E-1,3.2496926E-1,9.751166E-2,1.5241502E-1,1.5920101E-1,1.3401496E-1,1.6329502E-1,1.17521935E2,1.0266309E2,1.2382659E1,-2.7794817E-2,1.6444127E-1,-1.2377434E-1,1.2665443E-2,-4.600386E-2,9.867607E0,5.383567E-2,-6.900724E-2,2.2218097E-2,9.8705105E-2,1.02680996E-1,-4.93845E-2,6.011447E-2,1.6022204E-1,-1.6612293E-2,1.0620272E-1,1.379096E-2,-8.0100976E-2],"split_indices":[0,0,0,0,2,4,0,0,4,4,1,0,4,4,0,4,4,1,1,1,0,0,2,0,3,3,4,0,0,0,0,1,4,0,0,0,0,0,0,0,0,0,0,0,0],"split_type":[0,0,0,0,0,0,0,0,0,0,0,0,0,0,0,0,0,0,0,0,0,0,0,0,0,0,0,0,0,0,0,0,0,0,0,0,0,0,0,0,0,0,0,0,0],"sum_hessian":[7.4751772E3,6.5433867E3,9.3179034E2,5.5161847E2,5.9917686E3,3.5637672E1,8.9615265E2,5.170463E2,3.4572124E1,5.675663E3,3.1610513E2,1.2652044E1,2.2985628E1,2.3812634E1,1.0759491E1,5.8819424E1,5.6168438E3,1.8977328E2,1.2633186E2,1.2687809E1,1.0297819E1,1.1932023E1,1.18806095E1,5.5369026E1,3.4504008E0,5.592247E3,2.4596476E1,1.9223951E0,1.8785089E2,1.25200424E2,1.1314337E0,9.792529E0,2.8952804E0,1.00208645E1,1.8597454E0,1.4505913E0,1.9998095E0,1.4748158E1,5.577499E3,3.1718583E0,2.1424618E1,2.8270893E0,6.96544E0,1.6343708E0,1.2609094E0],"tree_param":{"num_deleted":"0","num_feature":"5","num_nodes":"45","size_leaf_vector":"1"}},{"base_weights":[-3.1856527E-3,-2.194908E-1,1.5353973E0,1.524555E0,-3.780093E-1,1.1487767E0,1.5497547E-1,1.5488918E-1,1.1346558E0,-4.234028E-1,4.6110585E-1,1.49792E-1,9.0481037E-1,1.4899038E-1,8.9525014E-1,1.4988917E0,-4.4353557E-1,1.5253648E0,-1.1945852E0,4.2203787E-1,1.4198071E-1,2.745599E-1,1.5162109E-1,1.533822E-1,7.362969E-1,-4.5185643E-1,1.4035448E0,-4.258777E-2,1.5432018E-1,-1.2083761E-1,1.1967212E-2,6.610267E-1,-3.5516572E-1,4.8626527E-2,-6.534622E-2,2.3416016E-2,9.6819855E-2,9.3408935E-2,-4.557661E-2,5.5168565E-2,1.5039365E-1,-1.5430674E-2,9.684915E-2,1.2907222E-2,-7.70978E-2],"categories":[],"categories_nodes":[],"categories_segments":[],"categories_sizes":[],"default_left":[0,0,0,0,0,0,0,0,0,0,0,0,0,0,0,0,0,0,0,0,0,0,0,0,0,0,0,0,0,0,0,0,0,0,0,0,0,0,0,0,0,0,0,0,0],"id":6,"left_children":[1,3,5,7,9,11,-1,-1,13,15,17,-1,19,-1,21,23,25,27,29,31,-1,33,-1,-1,35,37,39,-1,-1,-1,-1,41,43,-1,-1,-1,-1,-1,-1,-1,-1,-1,-1,-1,-1],"loss_changes":[2.4187275E3,1.7621775E3,3.1923828E0,3.2819824E0,2.2271222E2,1.7060242E0,0E0,0E0,1.6378899E0,2.1516718E2,5.309478E2,0E0,5.2888336E0,0E0,8.594843E0,4.0699768E-1,8.4947876E1,7.0343323E0,2.284317E0,2.7695274E0,0E0,2.8548472E0,0E0,0E0,2.9139185E-1,3.0021973E1,1.2950974E0,0E0,0E0,0E0,0E0,2.8535137E0,8.767112E-1,0E0,0E0,0E0,0E0,0E0,0E0,0E0,0E0,0E0,0E0,0E0,0E0],"parents":[2147483647,0,0,1,1,2,2,3,3,4,4,5,5,8,8,9,9,10,10,12,12,14,14,15,15,16,16,17,17,18,18,19,19,21,21,24,24,25,25,26,26,31,31,32,32],"right_children":[2,4,6,8,10,12,-1,-1,14,16,18,-1,20,-1,22,24,26,28,30,32,-1,34,-1,-1,36,38,40,-1,-1,-1,-1,42,44,-1,-1,-1,-1,-1,-1,-1,-1,-1,-1,-1,-1],"split_conditions":[4.0422688E0,2.9674983E0,4.4768605E0,2.520064E0,8.0022246E-1,9.066065E0,1.5497547E-1,1.5488918E-1,8.259496E0,8.259496E0,-4.8950203E-2,1.49792E-1,1.0709421E1,1.4899038E-1,1.12472315E1,7.7302737E0,1.181903E1,1.2098417E2,3.2496926E-1,9.751166E-2,1.4198071E-1,1.3401496E-1,1.5162109E-1,1.533822E-1,3.5240748E0,1.0266309E2,1.2382659E1,-4.258777E-2,1.5432018E-1,-1.2083761E-1,1.1967212E-2,-4.600386E-2,9.867607E0,4.8626527E-2,-6.534622E-2,2.3416016E-2,9.6819855E-2,9.3408935E-2,-4.557661E-2,5.5168565E-2,1.5039365E-1,-1.5430674E-2,9.684915E-2,1.2907222E-2,-7.70978E-2],"split_indices":[0,0,0,0,2,4,0,0,4,4,1,0,4,0,4,4,4,3,1,1,0,2,0,0,0,3,4,0,0,0,0,1,4,0,0,0,0,0,0,0,0,0,0,0,0],"split_type":[0,0,0,0,0,0,0,0,0,0,0,0,0,0,0,0,0,0,0,0,0,0,0,0,0,0,0,0,0,0,0,0,0,0,0,0,0,0,0,0,0,0,0,0,0],"sum_hessian":[7.2657236E3,6.370912E3,8.9481165E2,5.300958E2,5.8408164E3,3.4940228E1,8.598714E2,4.9615417E2,3.3941685E1,5.541532E3,2.9928397E2,1.2257912E1,2.2682316E1,1.1561914E1,2.2379772E1,5.667539E1,5.484857E3,1.822284E2,1.1705558E2,1.26465645E1,1.0035751E1,1.1913557E1,1.0466214E1,5.322608E1,3.4493062E0,5.461011E3,2.3845753E1,1.4434978E0,1.807849E2,1.1591977E2,1.1358144E0,9.786663E0,2.8599024E0,1.00882015E1,1.8253553E0,1.7246531E0,1.7246531E0,1.4692505E1,5.446319E3,3.1987326E0,2.064702E1,2.8163671E0,6.9702954E0,1.6398225E0,1.2200798E0],"tree_param":{"num_deleted":"0","num_feature":"5","num_nodes":"45","size_leaf_vector":"1"}},{"base_weights":[-2.3677042E-3,-2.0285034E-1,1.4558738E0,1.4446908E0,-3.49127E-1,1.070837E0,1.4705752E-1,1.4696908E-1,1.0558393E0,-3.9031315E-1,4.412564E-1,1.4139973E-1,8.36501E-1,1.4065367E-1,8.2549644E-1,1.4185808E0,-4.0885207E-1,1.4460055E0,-1.1682833E0,4.3012348E-1,1.4009461E-1,8.823937E-2,1.2966297E0,1.4539653E-1,6.8906313E-1,-4.1653836E-1,1.321992E0,-2.6620394E-2,1.4663385E-1,-1.1828472E-1,1.1308069E-2,1.086581E0,1.274135E-1,-1.0970537E-2,8.399554E-2,3.7803635E-2,1.3897943E-1,1.9910289E-2,9.2707E-2,8.5331626E-2,-4.201747E-2,5.0712653E-2,1.424056E-1,1.261829E-1,3.1489667E-2,-7.0267476E-2,3.7608642E-2],"categories":[],"categories_nodes":[],"categories_segments":[],"categories_sizes":[],"default_left":[0,0,0,0,0,0,0,0,0,0,0,0,0,0,0,0,0,0,0,0,0,0,0,0,0,0,0,0,0,0,0,0,0,0,0,0,0,0,0,0,0,0,0,0,0,0,0],"id":7,"left_children":[1,3,5,7,9,11,-1,-1,13,15,17,-1,19,-1,21,23,25,27,29,31,-1,33,35,-1,37,39,41,-1,-1,-1,-1,43,45,-1,-1,-1,-1,-1,-1,-1,-1,-1,-1,-1,-1,-1,-1],"loss_changes":[2.0627864E3,1.4954102E3,3.2524414E0,3.3673096E0,1.856582E2,1.6351433E0,0E0,0E0,1.5950508E0,1.8221552E2,4.5883618E2,0E0,4.735409E0,0E0,7.8793383E0,4.22287E-1,7.188733E1,6.464905E0,2.1714935E0,2.8370066E0,0E0,1.5869371E0,6.6999626E-1,0E0,3.3470798E-1,2.5012878E1,1.2694054E0,0E0,0E0,0E0,0E0,2.2375345E-1,2.613468E0,0E0,0E0,0E0,0E0,0E0,0E0,0E0,0E0,0E0,0E0,0E0,0E0,0E0,0E0],"parents":[2147483647,0,0,1,1,2,2,3,3,4,4,5,5,8,8,9,9,10,10,12,12,14,14,15,15,16,16,17,17,18,18,19,19,21,21,22,22,24,24,25,25,26,26,31,31,32,32],"right_children":[2,4,6,8,10,12,-1,-1,14,16,18,-1,20,-1,22,24,26,28,30,32,-1,34,36,-1,38,40,42,-1,-1,-1,-1,44,46,-1,-1,-1,-1,-1,-1,-1,-1,-1,-1,-1,-1,-1,-1],"split_conditions":[4.0422688E0,2.9674983E0,4.4768605E0,2.520064E0,8.0022246E-1,9.066065E0,1.4705752E-1,1.4696908E-1,8.259496E0,8.259496E0,-4.8950203E-2,1.4139973E-1,1.1090162E1,1.4065367E-1,1.0432051E1,7.7302737E0,1.181903E1,-3.4704915E-1,3.2496926E-1,1.1699673E2,1.4009461E-1,1.22200474E-1,-1.6708747E-1,1.4539653E-1,1.313262E-2,1.0266309E2,1.2382659E1,-2.6620394E-2,1.4663385E-1,-1.1828472E-1,1.1308069E-2,1.8701442E-2,6.7347493E-3,-1.0970537E-2,8.399554E-2,3.7803635E-2,1.3897943E-1,1.9910289E-2,9.2707E-2,8.5331626E-2,-4.201747E-2,5.0712653E-2,1.424056E-1,1.261829E-1,3.1489667E-2,-7.0267476E-2,3.7608642E-2],"split_indices":[0,0,0,0,2,4,0,0,4,4,1,0,4,0,4,4,4,1,1,3,0,1,1,0,1,3,4,0,0,0,0,1,2,0,0,0,0,0,0,0,0,0,0,0,0,0,0],"split_type":[0,0,0,0,0,0,0,0,0,0,0,0,0,0,0,0,0,0,0,0,0,0,0,0,0,0,0,0,0,0,0,0,0,0,0,0,0,0,0,0,0,0,0,0,0,0,0],"sum_hessian":[7.053818E3,6.2020107E3,8.518068E2,5.0501837E2,5.6969927E3,3.404271E1,8.1776416E2,4.718995E2,3.311886E1,5.4153115E3,2.8168082E2,1.1771106E1,2.2271603E1,1.1105084E1,2.2013775E1,5.4171013E1,5.3611406E3,1.7348503E2,1.0819578E2,1.3973371E1,8.298231E0,9.045748E0,1.2968027E1,5.071794E1,3.4530716E0,5.3381943E3,2.2946398E1,1.8940943E0,1.7159094E2,1.07055885E2,1.139893E0,3.592707E0,1.0380664E1,7.8363185E0,1.209429E0,1.6598465E0,1.1308181E1,1.7294252E0,1.7236465E0,1.45754385E1,5.3236187E3,3.218557E0,1.972784E1,2.4101949E0,1.1825122E0,1.9720658E0,8.408598E0],"tree_param":{"num_deleted":"0","num_feature":"5","num_nodes":"47","size_leaf_vector":"1"}},{"base_weights":[-1.4696105E-3,-1.8732303E-1,1.3906413E0,1.3793688E0,-3.2215536E-1,1.003099E0,1.405953E-1,1.4050297E-1,9.9194276E-1,-3.5942036E-1,4.247064E-1,1.3441592E-1,7.7735543E-1,7.814857E-1,1.361048E-1,1.3518398E0,-3.7645558E-1,1.3811778E0,-1.1450624E0,3.4967503E-1,1.2644725E-1,1.3370644E-1,2.2011153E-1,1.3883916E-1,6.4578944E-1,-3.8354078E-1,1.2526954E0,-4.070022E-2,1.3991246E-1,-1.1605024E-1,1.0685731E-2,6.8563336E-1,-1.7442134E-1,4.1652855E-2,-6.349986E-2,1.374916E-2,8.527269E-2,7.8193985E-2,-3.8691524E-2,4.667943E-2,1.3578455E-1,-1.7512783E-2,1.147083E-1,-4.2904153E-2,4.910887E-2],"categories":[],"categories_nodes":[],"categories_segments":[],"categories_sizes":[],"default_left":[0,0,0,0,0,0,0,0,0,0,0,0,0,0,0,0,0,0,0,0,0,0,0,0,0,0,0,0,0,0,0,0,0,0,0,0,0,0,0,0,0,0,0,0,0],"id":8,"left_children":[1,3,5,7,9,11,-1,-1,13,15,17,-1,19,21,-1,23,25,27,29,31,-1,-1,33,-1,35,37,39,-1,-1,-1,-1,41,43,-1,-1,-1,-1,-1,-1,-1,-1,-1,-1,-1,-1],"loss_changes":[1.7712904E3,1.2762928E3,3.3743896E0,3.366333E0,1.5495276E2,1.5833969E0,0E0,0E0,1.5110168E0,1.5496027E2,3.9914383E2,0E0,4.3312435E0,7.0215836E0,0E0,4.5674133E-1,6.1043457E1,5.8642273E0,2.072403E0,2.5111928E0,0E0,0E0,2.425212E0,0E0,3.509183E-1,2.0850952E1,1.2630272E0,0E0,0E0,0E0,0E0,3.5690815E0,1.2448667E0,0E0,0E0,0E0,0E0,0E0,0E0,0E0,0E0,0E0,0E0,0E0,0E0],"parents":[2147483647,0,0,1,1,2,2,3,3,4,4,5,5,8,8,9,9,10,10,12,12,13,13,15,15,16,16,17,17,18,18,19,19,22,22,24,24,25,25,26,26,31,31,32,32],"right_children":[2,4,6,8,10,12,-1,-1,14,16,18,-1,20,22,-1,24,26,28,30,32,-1,-1,34,-1,36,38,40,-1,-1,-1,-1,42,44,-1,-1,-1,-1,-1,-1,-1,-1,-1,-1,-1,-1],"split_conditions":[4.0422688E0,2.9674983E0,4.4768605E0,2.520064E0,8.0022246E-1,9.066065E0,1.405953E-1,1.4050297E-1,1.12472315E1,8.259496E0,-4.8950203E-2,1.3441592E-1,1.0709421E1,8.259496E0,1.361048E-1,7.7302737E0,1.181903E1,-4.5434752E-1,3.2496926E-1,2.2566952E-2,1.2644725E-1,1.3370644E-1,1.3401496E-1,1.3883916E-1,1.17521935E2,1.0266309E2,1.2382659E1,-4.070022E-2,1.3991246E-1,-1.1605024E-1,1.0685731E-2,-4.600386E-2,1.22474464E2,4.1652855E-2,-6.349986E-2,1.374916E-2,8.527269E-2,7.8193985E-2,-3.8691524E-2,4.667943E-2,1.3578455E-1,-1.7512783E-2,1.147083E-1,-4.2904153E-2,4.910887E-2],"split_indices":[0,0,0,0,2,4,0,0,4,4,1,0,4,4,0,4,4,1,1,1,0,0,2,0,3,3,4,0,0,0,0,1,3,0,0,0,0,0,0,0,0,0,0,0,0],"split_type":[0,0,0,0,0,0,0,0,0,0,0,0,0,0,0,0,0,0,0,0,0,0,0,0,0,0,0,0,0,0,0,0,0,0,0,0,0,0,0,0,0,0,0,0,0],"sum_hessian":[6.844126E3,6.038785E3,8.05341E2,4.7779456E2,5.56099E3,3.3137104E1,7.722039E2,4.456505E2,3.214403E1,5.297203E3,2.637875E2,1.1224471E1,2.1912634E1,2.2456812E1,9.687218E0,5.1440323E1,5.2457627E3,1.6398837E2,9.979915E1,1.2582905E1,9.329729E0,1.0592197E1,1.1864615E1,4.7989525E1,3.4507987E0,5.2238086E3,2.1953938E1,1.4140651E0,1.6257431E2,9.865546E1,1.1436917E0,7.4798937E0,5.103011E0,1.0065489E1,1.7991267E0,1.4799724E0,1.9708264E0,1.4414895E1,5.2093936E3,3.2325897E0,1.8721348E1,2.827019E0,4.652875E0,3.947891E0,1.1551204E0],"tree_param":{"num_deleted":"0","num_feature":"5","num_nodes":"45","size_leaf_vector":"1"}},{"base_weights":[-5.951759E-4,-1.7284906E-1,1.3364693E0,1.3244671E0,-2.9695848E-1,9.4555134E-1,1.3524249E-1,1.3514486E-1,9.3092453E-1,-3.3059007E-1,4.1052726E-1,1.2850057E-1,7.269582E-1,1.2781416E-1,7.150009E-1,1.2956071E0,-3.4621292E-1,1.3268245E0,-1.1243951E0,3.633227E-1,1.2696478E-1,1.9637044E-1,1.2976888E-1,1.3336849E-1,6.064852E-1,-3.5273236E-1,1.1926628E0,-2.543957E-2,1.3477182E-1,-1.14081874E-1,1.0098065E-2,9.9000853E-1,8.480843E-2,3.7759725E-2,-6.0227104E-2,1.5235679E-2,8.388878E-2,7.1813874E-2,-3.5585728E-2,4.3014344E-2,1.3020377E-1,1.1553466E-1,2.7903918E-2,-6.984722E-2,3.2285195E-2],"categories":[],"categories_nodes":[],"categories_segments":[],"categories_sizes":[],"default_left":[0,0,0,0,0,0,0,0,0,0,0,0,0,0,0,0,0,0,0,0,0,0,0,0,0,0,0,0,0,0,0,0,0,0,0,0,0,0,0,0,0,0,0,0,0],"id":9,"left_children":[1,3,5,7,9,11,-1,-1,13,15,17,-1,19,-1,21,23,25,27,29,31,-1,33,-1,-1,35,37,39,-1,-1,-1,-1,41,43,-1,-1,-1,-1,-1,-1,-1,-1,-1,-1,-1,-1],"loss_changes":[1.529706E3,1.0937859E3,3.4490967E0,3.526001E0,1.294375E2,1.5181866E0,0E0,0E0,1.4943638E0,1.322591E2,3.4895425E2,0E0,3.9603653E0,0E0,6.4162245E0,4.9212646E-1,5.198456E1,5.468872E0,1.9846497E0,2.5022538E0,0E0,2.0883906E0,0E0,0E0,3.397447E-1,1.7384705E1,1.267271E0,0E0,0E0,0E0,0E0,2.0251322E-1,2.3421247E0,0E0,0E0,0E0,0E0,0E0,0E0,0E0,0E0,0E0,0E0,0E0,0E0],"parents":[2147483647,0,0,1,1,2,2,3,3,4,4,5,5,8,8,9,9,10,10,12,12,14,14,15,15,16,16,17,17,18,18,19,19,21,21,24,24,25,25,26,26,31,31,32,32],"right_children":[2,4,6,8,10,12,-1,-1,14,16,18,-1,20,-1,22,24,26,28,30,32,-1,34,-1,-1,36,38,40,-1,-1,-1,-1,42,44,-1,-1,-1,-1,-1,-1,-1,-1,-1,-1,-1,-1],"split_conditions":[4.0422688E0,2.9674983E0,4.4768605E0,2.520064E0,8.0022246E-1,9.066065E0,1.3524249E-1,1.3514486E-1,8.259496E0,8.259496E0,-4.8950203E-2,1.2850057E-1,1.1090162E1,1.2781416E-1,1.12472315E1,7.7302737E0,1.181903E1,-3.4704915E-1,3.2496926E-1,1.1699673E2,1.2696478E-1,1.3401496E-1,1.2976888E-1,1.3336849E-1,1.313262E-2,1.0266309E2,1.2382659E1,-2.543957E-2,1.3477182E-1,-1.14081874E-1,1.0098065E-2,8.517323E-2,6.7347493E-3,3.7759725E-2,-6.0227104E-2,1.5235679E-2,8.388878E-2,7.1813874E-2,-3.5585728E-2,4.3014344E-2,1.3020377E-1,1.1553466E-1,2.7903918E-2,-6.984722E-2,3.2285195E-2],"split_indices":[0,0,0,0,2,4,0,0,4,4,1,0,4,0,4,4,4,1,1,3,0,2,0,0,1,3,4,0,0,0,0,2,2,0,0,0,0,0,0,0,0,0,0,0,0],"split_type":[0,0,0,0,0,0,0,0,0,0,0,0,0,0,0,0,0,0,0,0,0,0,0,0,0,0,0,0,0,0,0,0,0,0,0,0,0,0,0,0,0,0,0,0,0],"sum_hessian":[6.639809E3,5.8827993E3,7.570097E2,4.4954913E2,5.43325E3,3.2049206E1,7.249605E2,4.184275E2,3.1121643E1,5.1872E3,2.4605003E2,1.0643046E1,2.1406158E1,1.00466585E1,2.1074984E1,4.857952E1,5.1386206E3,1.5415828E2,9.1891754E1,1.3817241E1,7.588918E0,1.1857784E1,9.217199E0,4.514942E1,3.4300966E0,5.11771E3,2.091039E1,1.8646779E0,1.522936E2,9.074452E1,1.1472312E0,3.4653163E0,1.0351924E1,1.0094379E1,1.7634045E0,1.721587E0,1.7085097E0,1.4224822E1,5.1034854E3,3.241894E0,1.7668497E1,2.3043923E0,1.1609238E0,1.9619433E0,8.389981E0],"tree_param":{"num_deleted":"0","num_feature":"5","num_nodes":"45","size_leaf_vector":"1"}},{"base_weights":[2.63834E-4,-1.5931433E-1,1.2906189E0,1.277941E0,-2.7341294E-1,8.9173955E-1,1.3075438E-1,1.3065018E-1,8.762865E-1,1.2471166E0,-2.868361E-1,1.23411275E-1,6.7904234E-1,1.22738E-1,6.649659E-1,1.287422E-1,5.699342E-1,-3.1800812E-1,3.984383E-1,3.352666E-1,1.2160492E-1,4.0959444E-2,1.1150817E0,1.2430788E-2,8.0815464E-2,-3.2399786E-1,1.1397468E0,1.2812077E0,-1.105852E0,5.380735E-1,-3.7549457E-1,-1.4542009E-2,7.6854885E-2,1.1973745E-1,1.7305031E-2,6.60582E-2,-3.2688614E-2,3.967273E-2,1.2542997E-1,-2.3944227E-2,1.3024616E-1,-1.12337224E-1,9.543102E-3,8.772258E-3,1.004045E-1,8.032099E-3,-7.574997E-2],"categories":[],"categories_nodes":[],"categories_segments":[],"categories_sizes":[],"default_left":[0,0,0,0,0,0,0,0,0,0,0,0,0,0,0,0,0,0,0,0,0,0,0,0,0,0,0,0,0,0,0,0,0,0,0,0,0,0,0,0,0,0,0,0,0,0,0],"id":10,"left_children":[1,3,5,7,9,11,-1,-1,13,15,17,-1,19,-1,21,-1,23,25,27,29,-1,31,33,-1,-1,35,37,39,41,43,45,-1,-1,-1,-1,-1,-1,-1,-1,-1,-1,-1,-1,-1,-1,-1,-1],"loss_changes":[1.3271659E3,9.40978E2,3.6230469E0,3.6965942E0,1.0883609E2,1.4936275E0,0E0,0E0,1.4879074E0,5.407715E-1,1.1268399E2,0E0,3.648672E0,0E0,6.0124617E0,0E0,3.6849225E-1,4.4380676E1,3.0644818E2,2.3321395E0,0E0,1.4782315E0,7.6121616E-1,0E0,0E0,1.4493225E1,1.2768059E0,5.0052643E0,1.9063644E0,2.4107792E0,7.3460495E-1,0E0,0E0,0E0,0E0,0E0,0E0,0E0,0E0,0E0,0E0,0E0,0E0,0E0,0E0,0E0,0E0],"parents":[2147483647,0,0,1,1,2,2,3,3,4,4,5,5,8,8,9,9,10,10,12,12,14,14,16,16,17,17,18,18,19,19,21,21,22,22,25,25,26,26,27,27,28,28,29,29,30,30],"right_children":[2,4,6,8,10,12,-1,-1,14,16,18,-1,20,-1,22,-1,24,26,28,30,-1,32,34,-1,-1,36,38,40,42,44,46,-1,-1,-1,-1,-1,-1,-1,-1,-1,-1,-1,-1,-1,-1,-1,-1],"split_conditions":[4.0422688E0,2.9674983E0,4.4768605E0,2.520064E0,8.259496E0,9.066065E0,1.3075438E-1,1.3065018E-1,8.259496E0,7.7302737E0,8.0022246E-1,1.23411275E-1,1.1090162E1,1.22738E-1,1.0432051E1,1.287422E-1,3.5240748E0,1.181903E1,-4.8950203E-2,9.751166E-2,1.2160492E-1,1.22200474E-1,2.9040128E-1,1.2430788E-2,8.0815464E-2,1.0266309E2,1.2382659E1,-3.4704915E-1,3.2496926E-1,2.2096822E-2,9.867607E0,-1.4542009E-2,7.6854885E-2,1.1973745E-1,1.7305031E-2,6.60582E-2,-3.2688614E-2,3.967273E-2,1.2542997E-1,-2.3944227E-2,1.3024616E-1,-1.12337224E-1,9.543102E-3,8.772258E-3,1.004045E-1,8.032099E-3,-7.574997E-2],"split_indices":[0,0,0,0,4,4,0,0,4,4,2,0,4,0,4,0,0,4,1,1,0,1,2,0,0,3,4,1,1,2,4,0,0,0,0,0,0,0,0,0,0,0,0,0,0,0,0],"split_type":[0,0,0,0,0,0,0,0,0,0,0,0,0,0,0,0,0,0,0,0,0,0,0,0,0,0,0,0,0,0,0,0,0,0,0,0,0,0,0,0,0,0,0,0,0,0,0],"sum_hessian":[6.4432925E3,5.7349307E3,7.083622E2,4.2104114E2,5.313889E3,3.1018463E1,6.773437E2,3.9098615E2,3.0055002E1,4.5695915E1,5.2681934E3,1.0045797E1,2.0972666E1,9.486217E0,2.0568785E1,4.2278393E1,3.4175227E0,5.039491E3,2.2870241E2,1.3777224E1,7.195442E0,9.076629E0,1.1492157E1,1.7206372E0,1.6968856E0,5.0196436E3,1.9847353E1,1.4421838E2,8.4484024E1,1.0907784E1,2.8694391E0,7.862661E0,1.2139673E0,1.03196125E1,1.1725444E0,1.4016007E1,5.0056274E3,3.247366E0,1.6599987E1,1.8464334E0,1.4237196E2,8.3333496E1,1.1505308E0,6.151122E0,4.7566624E0,1.6684054E0,1.2010336E0],"tree_param":{"num_deleted":"0","num_feature":"5","num_nodes":"47","size_leaf_vector":"1"}},{"base_weights":[1.0894082E-3,-1.466394E-1,1.2514001E0,1.2383845E0,-2.5142637E-1,8.412781E-1,1.2695287E-1,1.2684095E-1,8.3106786E-1,1.2048273E0,-2.6374704E-1,1.18970335E-1,6.329462E-1,6.337377E-1,1.2026586E-1,1.2478321E-1,5.3607583E-1,-2.917372E-1,3.879358E-1,3.0581632E-1,1.1691145E-1,1.1830256E-1,1.5622814E-1,7.110052E-3,7.501183E-2,-2.972333E-1,1.0923643E0,1.242237E0,-1.0890785E0,9.185357E-1,4.3200884E-2,-5.1611423E-2,3.4111466E-2,6.08278E-2,-2.9989809E-2,3.661759E-2,1.21291675E-1,-2.2536388E-2,1.264021E-1,-1.10781506E-1,9.018961E-3,1.0776625E-1,2.506786E-2,-6.5791674E-2,2.5987491E-2],"categories":[],"categories_nodes":[],"categories_segments":[],"categories_sizes":[],"default_left":[0,0,0,0,0,0,0,0,0,0,0,0,0,0,0,0,0,0,0,0,0,0,0,0,0,0,0,0,0,0,0,0,0,0,0,0,0,0,0,0,0,0,0,0,0],"id":11,"left_children":[1,3,5,7,9,11,-1,-1,13,15,17,-1,19,21,-1,-1,23,25,27,29,-1,-1,31,-1,-1,33,35,37,39,41,43,-1,-1,-1,-1,-1,-1,-1,-1,-1,-1,-1,-1,-1,-1],"loss_changes":[1.1558862E3,8.125721E2,3.8485107E0,3.762146E0,9.368561E1,1.4940987E0,0E0,0E0,1.4329948E0,5.9181976E-1,9.425415E1,0E0,3.4152775E0,5.4983044E0,0E0,0E0,3.8476026E-1,3.7972992E1,2.7008163E2,2.3278704E0,0E0,0E0,1.7601162E0,0E0,0E0,1.2079163E1,1.2882023E0,4.6134644E0,1.8360443E0,1.9373488E-1,1.8949853E0,0E0,0E0,0E0,0E0,0E0,0E0,0E0,0E0,0E0,0E0,0E0,0E0,0E0,0E0],"parents":[2147483647,0,0,1,1,2,2,3,3,4,4,5,5,8,8,9,9,10,10,12,12,13,13,16,16,17,17,18,18,19,19,22,22,25,25,26,26,27,27,28,28,29,29,30,30],"right_children":[2,4,6,8,10,12,-1,-1,14,16,18,-1,20,22,-1,-1,24,26,28,30,-1,-1,32,-1,-1,34,36,38,40,42,44,-1,-1,-1,-1,-1,-1,-1,-1,-1,-1,-1,-1,-1,-1],"split_conditions":[4.0422688E0,2.9674983E0,4.4768605E0,2.520064E0,8.259496E0,9.066065E0,1.2695287E-1,1.2684095E-1,1.12472315E1,7.7302737E0,8.0022246E-1,1.18970335E-1,1.1090162E1,8.259496E0,1.2026586E-1,1.2478321E-1,1.17521935E2,1.181903E1,-4.8950203E-2,1.1699673E2,1.1691145E-1,1.1830256E-1,9.360351E0,7.110052E-3,7.501183E-2,1.0266309E2,1.2382659E1,-3.4704915E-1,3.2496926E-1,8.517323E-2,6.7347493E-3,-5.1611423E-2,3.4111466E-2,6.08278E-2,-2.9989809E-2,3.661759E-2,1.21291675E-1,-2.2536388E-2,1.264021E-1,-1.10781506E-1,9.018961E-3,1.0776625E-1,2.506786E-2,-6.5791674E-2,2.5987491E-2],"split_indices":[0,0,0,0,4,4,0,0,4,4,2,0,4,4,0,0,3,4,1,3,0,0,4,0,0,3,4,1,1,2,2,0,0,0,0,0,0,0,0,0,0,0,0,0,0],"split_type":[0,0,0,0,0,0,0,0,0,0,0,0,0,0,0,0,0,0,0,0,0,0,0,0,0,0,0,0,0,0,0,0,0,0,0,0,0,0,0,0,0,0,0,0,0],"sum_hessian":[6.2559546E3,5.595686E3,6.602682E2,3.928159E2,5.20287E3,2.9957104E1,6.303111E2,3.638788E2,2.8937063E1,4.2837666E1,5.1600327E3,9.446937E0,2.0510168E1,2.0667324E1,8.26974E0,3.943579E1,3.4018722E0,4.9480625E3,2.1197E2,1.3713554E1,6.796613E0,8.924182E0,1.1743141E1,1.4922851E0,1.909587E0,4.9292744E3,1.8788298E1,1.3439514E2,7.7574844E1,3.3649647E0,1.034859E1,2.1463585E0,9.596783E0,1.3796745E1,4.9154775E3,3.2497578E0,1.553854E1,1.8289953E0,1.3256615E2,7.642124E1,1.1536082E0,2.221942E0,1.1430225E0,1.9623494E0,8.38624E0],"tree_param":{"num_deleted":"0","num_feature":"5","num_nodes":"45","size_leaf_vector":"1"}},{"base_weights":[1.8565116E-3,-1.3480558E-1,1.2176384E0,1.2036719E0,-2.3091745E-1,7.968163E-1,1.237052E-1,1.2358435E-1,7.849814E-1,1.1676737E0,-2.4221198E-1,1.1504429E-1,5.933663E-1,1.1437609E-1,5.828374E-1,1.2135887E-1,5.049096E-1,-2.6730436E-1,3.787202E-1,2.4562314E-1,1.0620656E0,1.3923404E-1,1.1601229E-1,8.810476E-3,7.390352E-2,-2.736999E-1,8.018494E-1,1.2085956E0,-1.0737782E0,8.3120835E-1,2.5066012E-3,3.2931797E-2,1.1453309E-1,3.0769883E-2,-5.866877E-2,5.6047525E-2,-2.7616361E-2,3.515984E-2,1.176598E-1,-3.5298508E-2,1.22828916E-1,-1.0938579E-1,8.523884E-3,9.9008374E-2,2.3727963E-2,-2.038197E-2,6.7577936E-2],"categories":[],"categories_nodes":[],"categories_segments":[],"categories_sizes":[],"default_left":[0,0,0,0,0,0,0,0,0,0,0,0,0,0,0,0,0,0,0,0,0,0,0,0,0,0,0,0,0,0,0,0,0,0,0,0,0,0,0,0,0,0,0,0,0,0,0],"id":12,"left_children":[1,3,5,7,9,11,-1,-1,13,15,17,-1,19,-1,21,-1,23,25,27,29,31,33,-1,-1,-1,35,37,39,41,43,45,-1,-1,-1,-1,-1,-1,-1,-1,-1,-1,-1,-1,-1,-1,-1,-1],"loss_changes":[1.0103362E3,7.0349225E2,4.0341797E0,3.965149E0,8.086026E1,1.4689865E0,0E0,0E0,1.428257E0,6.3599396E-1,7.8954315E1,0E0,3.16991E0,0E0,5.0919476E0,0E0,3.61444E-1,3.3485138E1,2.3874501E2,1.903447E0,1.5147114E-1,1.7381351E0,0E0,0E0,0E0,1.0095215E1,4.5103817E0,4.303314E0,1.7724686E0,1.3531375E-1,1.5909305E0,0E0,0E0,0E0,0E0,0E0,0E0,0E0,0E0,0E0,0E0,0E0,0E0,0E0,0E0,0E0,0E0],"parents":[2147483647,0,0,1,1,2,2,3,3,4,4,5,5,8,8,9,9,10,10,12,12,14,14,16,16,17,17,18,18,19,19,20,20,21,21,25,25,26,26,27,27,28,28,29,29,30,30],"right_children":[2,4,6,8,10,12,-1,-1,14,16,18,-1,20,-1,22,-1,24,26,28,30,32,34,-1,-1,-1,36,38,40,42,44,46,-1,-1,-1,-1,-1,-1,-1,-1,-1,-1,-1,-1,-1,-1,-1,-1],"split_conditions":[4.0422688E0,2.9674983E0,4.4768605E0,2.520064E0,8.259496E0,9.066065E0,1.237052E-1,1.2358435E-1,8.259496E0,7.7302737E0,8.0022246E-1,1.1504429E-1,1.0709421E1,1.1437609E-1,1.12472315E1,1.2135887E-1,1.313262E-2,1.1416199E1,-4.8950203E-2,1.1699673E2,6.7347493E-3,1.3401496E-1,1.1601229E-1,8.810476E-3,7.390352E-2,1.0266309E2,1.2382659E1,1.2098417E2,3.2496926E-1,8.517323E-2,1.2639983E2,3.2931797E-2,1.1453309E-1,3.0769883E-2,-5.866877E-2,5.6047525E-2,-2.7616361E-2,3.515984E-2,1.176598E-1,-3.5298508E-2,1.22828916E-1,-1.0938579E-1,8.523884E-3,9.9008374E-2,2.3727963E-2,-2.038197E-2,6.7577936E-2],"split_indices":[0,0,0,0,4,4,0,0,4,4,2,0,4,0,4,0,1,4,1,3,2,2,0,0,0,3,4,3,1,2,3,0,0,0,0,0,0,0,0,0,0,0,0,0,0,0,0],"split_type":[0,0,0,0,0,0,0,0,0,0,0,0,0,0,0,0,0,0,0,0,0,0,0,0,0,0,0,0,0,0,0,0,0,0,0,0,0,0,0,0,0,0,0,0,0,0,0],"sum_hessian":[6.078833E3,5.465377E3,6.134561E2,3.6538684E2,5.0999897E3,2.8906359E1,5.8454974E2,3.3750192E2,2.7884918E1,4.0035583E1,5.059954E3,8.856961E0,2.0049398E1,8.370396E0,1.951452E1,3.6664444E1,3.3711402E0,4.863967E3,1.9598746E2,1.2384782E1,7.6646166E0,1.17368E1,7.777721E0,1.7075567E0,1.6635836E0,4.8357837E3,2.8182978E1,1.2483292E2,7.115455E1,2.9236736E0,9.461108E0,1.2876989E0,6.3769174E0,9.99369E0,1.7431104E0,1.3573354E1,4.8222104E3,1.3682282E1,1.4500695E1,1.3439195E0,1.23489E2,6.999807E1,1.1564792E0,1.7804084E0,1.1432654E0,7.7755423E0,1.6855663E0],"tree_param":{"num_deleted":"0","num_feature":"5","num_nodes":"47","size_leaf_vector":"1"}},{"base_weights":[2.5770215E-3,-1.23755984E-1,1.1884443E0,1.173248E0,-2.1181302E-1,7.598062E-1,1.2091019E-1,1.2077927E-1,7.424825E-1,1.134232E0,-2.2215822E-1,1.1153086E-1,5.6259704E-1,1.1085756E-1,5.43719E-1,1.1836761E-1,4.7577196E-1,-2.4462044E-1,3.7040573E-1,2.66091E-1,1.09384075E-1,1.23318136E-1,1.1221301E-1,6.5127793E-3,7.154938E-2,-2.504956E-1,7.4921E-1,1.1788673E0,-1.0597007E0,4.544547E-1,-3.7551138E-1,-4.9832758E-2,2.9565046E-2,5.165937E-2,-2.5276182E-2,3.1414427E-2,1.14435114E-1,-2.1695876E-2,1.20264664E-1,-1.08125865E-1,8.056211E-3,3.75935E-3,8.869089E-2,-7.688811E-2,5.3929766E-3],"categories":[],"categories_nodes":[],"categories_segments":[],"categories_sizes":[],"default_left":[0,0,0,0,0,0,0,0,0,0,0,0,0,0,0,0,0,0,0,0,0,0,0,0,0,0,0,0,0,0,0,0,0,0,0,0,0,0,0,0,0,0,0,0,0],"id":13,"left_children":[1,3,5,7,9,11,-1,-1,13,15,17,-1,19,-1,21,-1,23,25,27,29,-1,31,-1,-1,-1,33,35,37,39,41,43,-1,-1,-1,-1,-1,-1,-1,-1,-1,-1,-1,-1,-1,-1],"loss_changes":[8.860556E2,6.1069965E2,4.123169E0,4.1621704E0,6.996123E1,1.3966465E0,0E0,0E0,1.4226608E0,6.8522644E-1,6.622499E1,0E0,2.9518638E0,0E0,4.7255707E0,0E0,3.8164663E-1,2.814331E1,2.1151917E2,1.9272199E0,0E0,1.5086286E0,0E0,0E0,0E0,8.405853E0,4.520755E0,4.1329803E0,1.7146072E0,2.0737514E0,6.912051E-1,0E0,0E0,0E0,0E0,0E0,0E0,0E0,0E0,0E0,0E0,0E0,0E0,0E0,0E0],"parents":[2147483647,0,0,1,1,2,2,3,3,4,4,5,5,8,8,9,9,10,10,12,12,14,14,16,16,17,17,18,18,19,19,21,21,25,25,26,26,27,27,28,28,29,29,30,30],"right_children":[2,4,6,8,10,12,-1,-1,14,16,18,-1,20,-1,22,-1,24,26,28,30,-1,32,-1,-1,-1,34,36,38,40,42,44,-1,-1,-1,-1,-1,-1,-1,-1,-1,-1,-1,-1,-1,-1],"split_conditions":[4.0422688E0,2.9674983E0,4.4768605E0,2.520064E0,8.259496E0,9.066065E0,1.2091019E-1,1.2077927E-1,8.259496E0,7.7302737E0,8.0022246E-1,1.1153086E-1,1.1090162E1,1.1085756E-1,1.12472315E1,1.1836761E-1,3.5240748E0,1.1416199E1,-4.8950203E-2,9.751166E-2,1.09384075E-1,9.360351E0,1.1221301E-1,6.5127793E-3,7.154938E-2,1.0266309E2,1.2382659E1,-3.4704915E-1,3.2496926E-1,2.2096822E-2,1.00671284E-1,-4.9832758E-2,2.9565046E-2,5.165937E-2,-2.5276182E-2,3.1414427E-2,1.14435114E-1,-2.1695876E-2,1.20264664E-1,-1.08125865E-1,8.056211E-3,3.75935E-3,8.869089E-2,-7.688811E-2,5.3929766E-3],"split_indices":[0,0,0,0,4,4,0,0,4,4,2,0,4,0,4,0,0,4,1,1,0,4,0,0,0,3,4,1,1,2,2,0,0,0,0,0,0,0,0,0,0,0,0,0,0],"split_type":[0,0,0,0,0,0,0,0,0,0,0,0,0,0,0,0,0,0,0,0,0,0,0,0,0,0,0,0,0,0,0,0,0,0,0,0,0,0,0,0,0,0,0,0,0],"sum_hessian":[5.9123823E3,5.343973E3,5.6840936E2,3.3896643E2,5.0050063E3,2.7871243E1,5.4053815E2,3.1213174E2,2.6834688E1,3.7344685E1,4.967662E3,8.283463E0,1.958778E1,7.8319783E0,1.900271E1,3.3994385E1,3.350301E0,4.786797E3,1.8086511E2,1.3534549E1,6.053231E0,1.1707015E1,7.295695E0,1.7036402E0,1.6466609E0,4.7594087E3,2.738799E1,1.1565768E2,6.520743E1,1.0688324E1,2.846225E0,2.1304138E0,9.576602E0,1.3350576E1,4.746058E3,1.3889801E1,1.3498191E1,1.801257E0,1.1385642E2,6.404826E1,1.1591592E0,5.9957213E0,4.6926026E0,1.0729637E0,1.7732612E0],"tree_param":{"num_deleted":"0","num_feature":"5","num_nodes":"45","size_leaf_vector":"1"}},{"base_weights":[3.2042277E-3,-1.1344089E-1,1.1624787E0,1.1462468E0,-1.940388E-1,7.189519E-1,1.1848936E-1,1.1834712E-1,7.027097E-1,1.1039063E0,-2.0350675E-1,1.0835039E-1,5.251802E-1,1.076682E-1,5.074389E-1,1.15730226E-1,4.48584E-1,-2.235949E-1,3.6309752E-1,2.4218301E-1,1.0595284E-1,1.0946628E-1,1.08780004E-1,1.8558031E-3,6.687934E-2,-2.2740078E-1,1.1153995E-1,1.1530774E0,-1.0466311E0,8.186362E-1,7.6150666E-3,2.671496E-2,-5.6719124E-2,4.76179E-2,-2.2947168E-2,-3.3948157E-2,1.174731E-1,-1.06981136E-1,7.614422E-3,9.705068E-2,2.1501012E-2,-6.030708E-2,2.4042366E-2],"categories":[],"categories_nodes":[],"categories_segments":[],"categories_sizes":[],"default_left":[0,0,0,0,0,0,0,0,0,0,0,0,0,0,0,0,0,0,0,0,0,0,0,0,0,0,0,0,0,0,0,0,0,0,0,0,0,0,0,0,0,0,0],"id":14,"left_children":[1,3,5,7,9,11,-1,-1,13,15,17,-1,19,-1,21,-1,23,25,27,29,-1,31,-1,-1,-1,33,-1,35,37,39,41,-1,-1,-1,-1,-1,-1,-1,-1,-1,-1,-1,-1],"loss_changes":[7.787155E2,5.314464E2,4.382019E0,4.365631E0,6.0667435E1,1.3996658E0,0E0,0E0,1.4132967E0,7.3265076E-1,5.566783E1,0E0,2.788618E0,0E0,4.389656E0,0E0,3.9745343E-1,2.4292374E1,1.8785359E2,1.9492269E0,0E0,1.5057355E0,0E0,0E0,0E0,6.9640656E0,0E0,3.885559E0,1.6616135E0,1.7390776E-1,1.7498869E0,0E0,0E0,0E0,0E0,0E0,0E0,0E0,0E0,0E0,0E0,0E0,0E0],"parents":[2147483647,0,0,1,1,2,2,3,3,4,4,5,5,8,8,9,9,10,10,12,12,14,14,16,16,17,17,18,18,19,19,21,21,25,25,27,27,28,28,29,29,30,30],"right_children":[2,4,6,8,10,12,-1,-1,14,16,18,-1,20,-1,22,-1,24,26,28,30,-1,32,-1,-1,-1,34,-1,36,38,40,42,-1,-1,-1,-1,-1,-1,-1,-1,-1,-1,-1,-1],"split_conditions":[4.0422688E0,2.9674983E0,4.4768605E0,2.520064E0,8.259496E0,9.066065E0,1.1848936E-1,1.1834712E-1,8.259496E0,7.7302737E0,8.0022246E-1,1.0835039E-1,1.1090162E1,1.076682E-1,1.12472315E1,1.15730226E-1,1.17521935E2,1.2382659E1,-4.8950203E-2,1.1699673E2,1.0595284E-1,1.3401496E-1,1.08780004E-1,1.8558031E-3,6.687934E-2,1.0266309E2,1.1153995E-1,-4.5434752E-1,3.2496926E-1,8.517323E-2,-4.600386E-2,2.671496E-2,-5.6719124E-2,4.76179E-2,-2.2947168E-2,-3.3948157E-2,1.174731E-1,-1.06981136E-1,7.614422E-3,9.705068E-2,2.1501012E-2,-6.030708E-2,2.4042366E-2],"split_indices":[0,0,0,0,4,4,0,0,4,4,2,0,4,0,4,0,3,4,1,3,0,2,0,0,0,3,0,1,1,2,1,0,0,0,0,0,0,0,0,0,0,0,0],"split_type":[0,0,0,0,0,0,0,0,0,0,0,0,0,0,0,0,0,0,0,0,0,0,0,0,0,0,0,0,0,0,0,0,0,0,0,0,0,0,0,0,0,0,0],"sum_hessian":[5.7567456E3,5.231281E3,5.2546454E2,3.137873E2,4.9174937E3,2.6869556E1,4.9859497E2,2.8795233E2,2.583497E1,3.4774124E1,4.882719E3,7.7317624E0,1.9137794E1,7.31393E0,1.8521042E1,3.1445894E1,3.32823E0,4.7161216E3,1.6659804E2,1.3461599E1,5.676195E0,1.1692042E1,6.8289986E0,1.4943434E0,1.8338866E0,4.7035825E3,1.2539038E1,1.0688447E2,5.9713566E1,3.173273E0,1.0288326E1,9.973163E0,1.7188804E0,1.3131931E1,4.69045E3,1.3185809E0,1.0556589E2,5.8551903E1,1.1616619E0,2.0497637E0,1.1235095E0,2.4006662E0,7.88766E0],"tree_param":{"num_deleted":"0","num_feature":"5","num_nodes":"43","size_leaf_vector":"1"}},{"base_weights":[3.7667877E-3,-1.0383672E-1,1.1396703E0,1.1221037E0,-1.7753397E-1,6.8407935E-1,1.1638087E-1,1.1622602E-1,6.654928E-1,1.0763171E0,-1.8619144E-1,1.05439804E-1,4.9476168E-1,1.0474572E-1,4.7364977E-1,1.13383725E-1,4.2327935E-1,-2.0449217E-1,3.4692618E-1,2.256137E-1,1.0280623E-1,9.6344E-2,1.0564416E-1,3.7156497E-3,6.593543E-2,-2.0797229E-1,1.0891243E-1,1.1292553E0,-9.335606E-1,7.8131694E-1,3.5759474E-3,7.664133E-2,-6.5185255E-3,4.3886807E-2,-2.0987516E-2,-1.8604752E-2,1.1561566E-1,-1.050502E-1,5.3183276E-2,9.33351E-2,1.9922167E-2,-3.8062945E-2,3.7954286E-2],"categories":[],"categories_nodes":[],"categories_segments":[],"categories_sizes":[],"default_left":[0,0,0,0,0,0,0,0,0,0,0,0,0,0,0,0,0,0,0,0,0,0,0,0,0,0,0,0,0,0,0,0,0,0,0,0,0,0,0,0,0,0,0],"id":15,"left_children":[1,3,5,7,9,11,-1,-1,13,15,17,-1,19,-1,21,-1,23,25,27,29,-1,31,-1,-1,-1,33,-1,35,37,39,41,-1,-1,-1,-1,-1,-1,-1,-1,-1,-1,-1,-1],"loss_changes":[6.861747E2,4.6352167E2,4.5462036E0,4.561096E0,5.2720383E1,1.3620663E0,0E0,0E0,1.3986425E0,7.718468E-1,4.695955E1,0E0,2.5905309E0,0E0,4.084491E0,0E0,3.668599E-1,2.1147217E1,1.6120769E2,1.767754E0,0E0,1.4198608E0,0E0,0E0,0E0,5.7976227E0,0E0,3.7425613E0,1.1042675E1,1.7619658E-1,1.770591E0,0E0,0E0,0E0,0E0,0E0,0E0,0E0,0E0,0E0,0E0,0E0,0E0],"parents":[2147483647,0,0,1,1,2,2,3,3,4,4,5,5,8,8,9,9,10,10,12,12,14,14,16,16,17,17,18,18,19,19,21,21,25,25,27,27,28,28,29,29,30,30],"right_children":[2,4,6,8,10,12,-1,-1,14,16,18,-1,20,-1,22,-1,24,26,28,30,-1,32,-1,-1,-1,34,-1,36,38,40,42,-1,-1,-1,-1,-1,-1,-1,-1,-1,-1,-1,-1],"split_conditions":[4.0422688E0,2.9674983E0,4.4768605E0,2.520064E0,8.259496E0,9.066065E0,1.1638087E-1,1.1622602E-1,8.259496E0,7.7302737E0,1.3672646E2,1.05439804E-1,1.1090162E1,1.0474572E-1,1.12472315E1,1.13383725E-1,1.313262E-2,1.2382659E1,-4.8950203E-2,1.1699673E2,1.0280623E-1,1.1189871E2,1.0564416E-1,3.7156497E-3,6.593543E-2,1.0266309E2,1.0891243E-1,5.5727863E-1,1.0092443E-2,1.8701442E-2,1.22474464E2,7.664133E-2,-6.5185255E-3,4.3886807E-2,-2.0987516E-2,-1.8604752E-2,1.1561566E-1,-1.050502E-1,5.3183276E-2,9.33351E-2,1.9922167E-2,-3.8062945E-2,3.7954286E-2],"split_indices":[0,0,0,0,4,4,0,0,4,4,3,0,4,0,4,0,1,4,1,3,0,3,0,0,0,3,0,2,1,1,3,0,0,0,0,0,0,0,0,0,0,0,0],"split_type":[0,0,0,0,0,0,0,0,0,0,0,0,0,0,0,0,0,0,0,0,0,0,0,0,0,0,0,0,0,0,0,0,0,0,0,0,0,0,0,0,0,0,0],"sum_hessian":[5.61196E3,5.1271743E3,4.8478583E2,2.899348E2,4.8372393E3,2.5869194E1,4.5891663E2,2.6507724E2,2.4857569E1,3.2325035E1,4.8049146E3,7.205421E0,1.8663774E1,6.819598E0,1.803797E1,2.903165E1,3.2933872E0,4.6460425E3,1.5887175E2,1.3349537E1,5.314237E0,1.1656645E1,6.381325E0,1.6887197E0,1.6046674E0,4.634414E3,1.1628379E1,9.8692474E1,6.017927E1,3.09206E0,1.0257477E1,1.5368056E0,1.011984E1,1.2919961E1,4.621494E3,1.8594842E0,9.683299E1,5.599397E1,4.1853027E0,1.9732463E0,1.1188138E0,5.0670214E0,5.1904554E0],"tree_param":{"num_deleted":"0","num_feature":"5","num_nodes":"43","size_leaf_vector":"1"}},{"base_weights":[4.2965356E-3,-9.487132E-2,1.1193184E0,1.1006064E0,-1.6222079E-1,6.5199345E-1,1.1453529E-1,1.14366405E-1,6.342047E-1,1.0505103E0,-1.7013404E-1,7.439389E-1,6.509499E-2,1.0204031E-1,4.4734275E-1,1.1127742E-1,3.996012E-1,-1.8649538E-1,3.4025985E-1,1.5360087E-1,8.2826364E-1,-3.4254196E-1,7.228619E-2,9.2488065E-2,1.027505E-1,1.8189475E-3,6.408809E-2,-1.9119193E-1,6.668905E-1,1.1087667E0,-9.1468334E-1,5.8867097E-2,-3.3705782E-2,4.7249445E-1,1.1473315E0,-5.9188098E-2,1.428763E-2,2.3937121E-2,-5.4048833E-2,-1.2189404E-2,-2.08323E-2,2.9942328E-2,1.06502734E-1,-1.7509283E-2,1.1369735E-1,-1.0388072E-1,4.7601726E-2,9.048891E-2,1.0758213E-2,1.23376206E-1,2.416638E-2],"categories":[],"categories_nodes":[],"categories_segments":[],"categories_sizes":[],"default_left":[0,0,0,0,0,0,0,0,0,0,0,0,0,0,0,0,0,0,0,0,0,0,0,0,0,0,0,0,0,0,0,0,0,0,0,0,0,0,0,0,0,0,0,0,0,0,0,0,0,0,0],"id":16,"left_children":[1,3,5,7,9,11,-1,-1,13,15,17,19,21,-1,23,-1,25,27,29,31,33,35,-1,37,-1,-1,-1,39,41,43,45,-1,-1,47,49,-1,-1,-1,-1,-1,-1,-1,-1,-1,-1,-1,-1,-1,-1,-1,-1],"loss_changes":[6.059089E2,4.0534082E2,4.6983643E0,4.6668396E0,4.5903336E1,1.3512793E0,0E0,0E0,1.3431911E0,8.128395E-1,3.9600937E1,9.84334E-1,1.4834497E0,0E0,3.7314966E0,0E0,3.8122553E-1,1.8516861E1,1.431851E2,1.0562632E0,1.6499443E0,5.110992E-1,0E0,1.3037937E0,0E0,0E0,0E0,5.392578E0,3.3877382E0,3.5263062E0,1.0253658E1,0E0,0E0,1.6115422E0,4.439392E-1,0E0,0E0,0E0,0E0,0E0,0E0,0E0,0E0,0E0,0E0,0E0,0E0,0E0,0E0,0E0,0E0],"parents":[2147483647,0,0,1,1,2,2,3,3,4,4,5,5,8,8,9,9,10,10,11,11,12,12,14,14,16,16,17,17,18,18,19,19,20,20,21,21,23,23,27,27,28,28,29,29,30,30,33,33,34,34],"right_children":[2,4,6,8,10,12,-1,-1,14,16,18,20,22,-1,24,-1,26,28,30,32,34,36,-1,38,-1,-1,-1,40,42,44,46,-1,-1,48,50,-1,-1,-1,-1,-1,-1,-1,-1,-1,-1,-1,-1,-1,-1,-1,-1],"split_conditions":[4.0422688E0,2.9674983E0,4.4768605E0,2.520064E0,8.259496E0,1.5600182E-1,1.1453529E-1,1.14366405E-1,8.259496E0,7.7302737E0,1.3672646E2,-1.2312372E-1,1.8513481E-1,1.0204031E-1,1.12472315E1,1.1127742E-1,3.5240748E0,1.1416199E1,-4.8950203E-2,9.411058E0,1.594968E-2,1.22342125E2,7.228619E-2,1.3401496E-1,1.027505E-1,1.8189475E-3,6.408809E-2,9.5694275E0,1.2382659E1,5.5727863E-1,1.0092443E-2,5.8867097E-2,-3.3705782E-2,9.348759E0,1.2780677E-1,-5.9188098E-2,1.428763E-2,2.3937121E-2,-5.4048833E-2,-1.2189404E-2,-2.08323E-2,2.9942328E-2,1.06502734E-1,-1.7509283E-2,1.1369735E-1,-1.0388072E-1,4.7601726E-2,9.048891E-2,1.0758213E-2,1.23376206E-1,2.416638E-2],"split_indices":[0,0,0,0,4,1,0,0,4,4,3,1,2,0,4,0,0,4,1,4,2,3,0,2,0,0,0,4,4,2,1,0,0,4,1,0,0,0,0,0,0,0,0,0,0,0,0,0,0,0,0],"split_type":[0,0,0,0,0,0,0,0,0,0,0,0,0,0,0,0,0,0,0,0,0,0,0,0,0,0,0,0,0,0,0,0,0,0,0,0,0,0,0,0,0,0,0,0,0,0,0,0,0,0,0],"sum_hessian":[5.4776924E3,5.031147E3,4.4654544E2,2.675044E2,4.7636426E3,2.493843E1,4.21607E2,2.4356654E2,2.3937859E1,3.0027842E1,4.7336147E3,2.1329329E1,3.6091022E0,6.3510466E0,1.7586813E1,2.6758625E1,3.269216E0,4.5872007E3,1.464141E2,3.0185666E0,1.8310762E1,2.524088E0,1.0850143E0,1.1631721E1,5.955092E0,1.6834416E0,1.5857744E0,4.562865E3,2.4335442E1,9.087822E1,5.5535866E1,1.4940376E0,1.5245289E0,9.83043E0,8.480332E0,1.5226465E0,1.0014414E0,9.945649E0,1.686071E0,9.0601337E2,3.656852E3,1.3566276E1,1.0769166E1,1.8417475E0,8.9036476E1,5.121759E1,4.318275E0,3.821951E0,6.008479E0,7.410828E0,1.0695043E0],"tree_param":{"num_deleted":"0","num_feature":"5","num_nodes":"51","size_leaf_vector":"1"}},{"base_weights":[4.72387E-3,-8.656691E-2,1.100526E0,1.0806621E0,-1.4804016E-1,6.171041E-1,1.1291256E-1,1.1272814E-1,6.0076505E-1,1.0262724E0,-1.5526907E-1,1.00446954E-1,4.358863E-1,9.95118E-2,4.1749772E-1,1.0936981E-1,3.7740713E-1,-1.6988863E-1,3.3400142E-1,1.76303E-1,9.889769E-2,-2.201287E-2,8.5835886E-1,-2.3144567E-3,6.0256835E-2,-1.7278863E-1,1.04270175E-1,1.0902742E0,-8.960083E-1,7.2167414E-1,-3.2393936E-2,-1.977421E-2,6.98475E-2,1.6738495E-3,9.878725E-2,8.4168493E-4,-1.792083E-2,1.116566E-1,-2.980392E-2,-1.0277086E-1,4.2726796E-2,8.8025354E-2,1.6046798E-2,-6.5715425E-2,1.724666E-2],"categories":[],"categories_nodes":[],"categories_segments":[],"categories_sizes":[],"default_left":[0,0,0,0,0,0,0,0,0,0,0,0,0,0,0,0,0,0,0,0,0,0,0,0,0,0,0,0,0,0,0,0,0,0,0,0,0,0,0,0,0,0,0,0,0],"id":17,"left_children":[1,3,5,7,9,11,-1,-1,13,15,17,-1,19,-1,21,-1,23,25,27,29,-1,31,33,-1,-1,35,-1,37,39,41,43,-1,-1,-1,-1,-1,-1,-1,-1,-1,-1,-1,-1,-1,-1],"loss_changes":[5.358253E2,3.5493903E2,4.998169E0,4.859833E0,4.0040115E1,1.3320704E0,0E0,0E0,1.3230419E0,8.5048866E-1,3.3461243E1,0E0,2.545477E0,0E0,3.5348434E0,0E0,3.967864E-1,1.6128448E1,1.2733018E2,1.6293192E0,0E0,1.4120393E0,9.736204E-1,0E0,0E0,5.2656097E0,0E0,3.4194946E0,9.547867E0,2.1010351E-1,1.5419223E0,0E0,0E0,0E0,0E0,0E0,0E0,0E0,0E0,0E0,0E0,0E0,0E0,0E0,0E0],"parents":[2147483647,0,0,1,1,2,2,3,3,4,4,5,5,8,8,9,9,10,10,12,12,14,14,16,16,17,17,18,18,19,19,21,21,22,22,25,25,27,27,28,28,29,29,30,30],"right_children":[2,4,6,8,10,12,-1,-1,14,16,18,-1,20,-1,22,-1,24,26,28,30,-1,32,34,-1,-1,36,-1,38,40,42,44,-1,-1,-1,-1,-1,-1,-1,-1,-1,-1,-1,-1,-1,-1],"split_conditions":[4.0422688E0,2.9674983E0,4.4768605E0,2.520064E0,8.259496E0,9.066065E0,1.1291256E-1,1.1272814E-1,8.259496E0,7.7302737E0,1.3672646E2,1.00446954E-1,1.1090162E1,9.95118E-2,1.0432051E1,1.0936981E-1,1.17521935E2,1.2382659E1,-4.8950203E-2,1.1699673E2,9.889769E-2,1.22200474E-1,-1.6708747E-1,-2.3144567E-3,6.0256835E-2,1.0963633E2,1.04270175E-1,3.4978836E0,1.0092443E-2,8.517323E-2,6.7347493E-3,-1.977421E-2,6.98475E-2,1.6738495E-3,9.878725E-2,8.4168493E-4,-1.792083E-2,1.116566E-1,-2.980392E-2,-1.0277086E-1,4.2726796E-2,8.8025354E-2,1.6046798E-2,-6.5715425E-2,1.724666E-2],"split_indices":[0,0,0,0,4,4,0,0,4,4,3,0,4,0,4,0,3,4,1,3,0,1,1,0,0,3,0,0,1,2,2,0,0,0,0,0,0,0,0,0,0,0,0,0,0],"split_type":[0,0,0,0,0,0,0,0,0,0,0,0,0,0,0,0,0,0,0,0,0,0,0,0,0,0,0,0,0,0,0,0,0,0,0,0,0,0,0,0,0,0,0,0,0],"sum_hessian":[5.3543384E3,4.943425E3,4.109135E2,2.4649518E2,4.6969297E3,2.4213215E1,3.867003E2,2.234402E2,2.305497E1,2.7874334E1,4.669055E3,6.269294E0,1.7943922E1,5.9093695E0,1.7145601E1,2.4629454E1,3.2448804E0,4.534224E3,1.3483119E2,1.3109818E1,4.834102E0,9.061714E0,8.083886E0,1.4905202E0,1.7543602E0,4.524261E3,9.962671E0,8.356486E1,5.1266335E1,2.948012E0,1.0161807E1,7.868184E0,1.1935302E0,1.228693E0,6.855193E0,1.5478821E2,4.369473E3,8.220383E1,1.3610287E0,4.6829E1,4.4373364E0,1.8552685E0,1.0927438E0,1.9641014E0,8.197705E0],"tree_param":{"num_deleted":"0","num_feature":"5","num_nodes":"45","size_leaf_vector":"1"}},{"base_weights":[5.087868E-3,-7.8864306E-2,1.0837505E0,1.0626903E0,-1.349522E-1,5.867706E-1,1.11479916E-1,1.1127831E-1,5.7294035E-1,1.0035256E0,-1.415529E-1,9.806772E-2,4.1012534E-1,9.7127534E-2,3.9453825E-1,1.0762658E-1,3.5654914E-1,-1.543279E-1,3.393206E-1,1.6379622E-1,9.623068E-2,7.2810255E-2,9.784396E-2,-3.2843446E-4,5.9413552E-2,-1.584995E-1,6.2557876E-1,1.0740958E0,-9.998501E-1,6.908566E-1,-3.350966E-2,-4.9062666E-2,2.3511982E-2,-9.270396E-3,-1.7486272E-2,1.21370375E-1,3.832489E-2,-1.756993E-2,1.1049018E-1,-1.0326441E-1,1.0476712E-2,8.479639E-2,1.5215357E-2,-3.8682275E-2,3.1581115E-2],"categories":[],"categories_nodes":[],"categories_segments":[],"categories_sizes":[],"default_left":[0,0,0,0,0,0,0,0,0,0,0,0,0,0,0,0,0,0,0,0,0,0,0,0,0,0,0,0,0,0,0,0,0,0,0,0,0,0,0,0,0,0,0,0,0],"id":18,"left_children":[1,3,5,7,9,11,-1,-1,13,15,17,-1,19,-1,21,-1,23,25,27,29,-1,31,-1,-1,-1,33,35,37,39,41,43,-1,-1,-1,-1,-1,-1,-1,-1,-1,-1,-1,-1,-1,-1],"loss_changes":[4.7472696E2,3.1156378E2,5.187134E0,4.9533997E0,3.4987633E1,1.2935333E0,0E0,0E0,1.266058E0,8.7999153E-1,2.8379189E1,0E0,2.364708E0,0E0,3.2563353E0,0E0,3.6181682E-1,1.4715187E1,1.1880089E2,1.4820132E0,0E0,1.2585865E0,0E0,0E0,0E0,4.7956314E0,2.970129E0,3.187088E0,1.6624413E0,1.9829607E-1,1.4996697E0,0E0,0E0,0E0,0E0,0E0,0E0,0E0,0E0,0E0,0E0,0E0,0E0,0E0,0E0],"parents":[2147483647,0,0,1,1,2,2,3,3,4,4,5,5,8,8,9,9,10,10,12,12,14,14,16,16,17,17,18,18,19,19,21,21,25,25,26,26,27,27,28,28,29,29,30,30],"right_children":[2,4,6,8,10,12,-1,-1,14,16,18,-1,20,-1,22,-1,24,26,28,30,-1,32,-1,-1,-1,34,36,38,40,42,44,-1,-1,-1,-1,-1,-1,-1,-1,-1,-1,-1,-1,-1,-1],"split_conditions":[4.0422688E0,2.9674983E0,4.4768605E0,2.520064E0,8.259496E0,9.066065E0,1.11479916E-1,1.1127831E-1,8.259496E0,7.7302737E0,8.0022246E-1,9.806772E-2,1.1090162E1,9.7127534E-2,1.12472315E1,1.0762658E-1,1.313262E-2,1.1416199E1,-4.8950203E-2,1.1699673E2,9.623068E-2,9.360351E0,9.784396E-2,-3.2843446E-4,5.9413552E-2,9.5694275E0,3.2435024E0,-3.4704915E-1,3.2496926E-1,8.517323E-2,1.22474464E2,-4.9062666E-2,2.3511982E-2,-9.270396E-3,-1.7486272E-2,1.21370375E-1,3.832489E-2,-1.756993E-2,1.1049018E-1,-1.0326441E-1,1.0476712E-2,8.479639E-2,1.5215357E-2,-3.8682275E-2,3.1581115E-2],"split_indices":[0,0,0,0,4,4,0,0,4,4,2,0,4,0,4,0,1,4,1,3,0,4,0,0,0,4,0,1,1,2,3,0,0,0,0,0,0,0,0,0,0,0,0,0,0],"split_type":[0,0,0,0,0,0,0,0,0,0,0,0,0,0,0,0,0,0,0,0,0,0,0,0,0,0,0,0,0,0,0,0,0,0,0,0,0,0,0,0,0,0,0,0,0],"sum_hessian":[5.2404106E3,4.8628613E3,3.7754904E2,2.2689664E2,4.635965E3,2.3370392E1,3.5417865E2,2.0468843E2,2.220822E1,2.5852942E1,4.610112E3,5.826355E0,1.7544037E1,5.494912E0,1.6713308E1,2.264357E1,3.2093706E0,4.491469E3,1.18642494E2,1.3028593E1,4.5154433E0,1.150099E1,5.2123175E0,1.6685163E0,1.5408543E0,4.4683657E3,2.3103798E1,7.673663E1,4.190586E1,2.867427E0,1.0161166E1,2.1197534E0,9.381237E0,8.912734E2,3.5770923E3,5.5720863E0,1.7531712E1,1.732824E0,7.500381E1,4.0760906E1,1.144956E0,1.7755278E0,1.0918994E0,4.9983425E0,5.1628237E0],"tree_param":{"num_deleted":"0","num_feature":"5","num_nodes":"45","size_leaf_vector":"1"}},{"base_weights":[5.3821183E-3,-7.17506E-2,1.0685077E0,1.0454977E0,-1.2287472E-1,5.598962E-1,1.1021028E-1,1.09989695E-1,5.4246724E-1,1.060189E-1,-1.2850198E-1,9.580909E-2,3.8841483E-1,9.33612E-2,3.5862395E-1,-1.398832E-1,3.345237E-1,1.5525089E-1,9.3710445E-2,3.9103206E-2,9.5426336E-2,-1.4238971E-1,1.01057604E-1,1.0586485E0,-9.8936605E-1,3.252111E-1,-3.819386E-1,8.769568E-2,-1.3949267E-2,-1.8285548E-2,-1.1361477E-2,-1.6538464E-2,1.0912316E-1,-1.0247145E-1,9.900688E-3,-1.1997627E-2,7.199715E-2,3.2796816E-3,-7.2134964E-2],"categories":[],"categories_nodes":[],"categories_segments":[],"categories_sizes":[],"default_left":[0,0,0,0,0,0,0,0,0,0,0,0,0,0,0,0,0,0,0,0,0,0,0,0,0,0,0,0,0,0,0,0,0,0,0,0,0,0,0],"id":19,"left_children":[1,3,5,7,9,11,-1,-1,13,-1,15,-1,17,-1,19,21,23,25,-1,27,-1,29,-1,31,33,35,37,-1,-1,-1,-1,-1,-1,-1,-1,-1,-1,-1,-1],"loss_changes":[4.2131946E2,2.737505E2,5.3215637E0,5.142212E0,3.0638687E1,1.2370987E0,0E0,0E0,1.2787962E0,0E0,2.408194E1,0E0,2.1771538E0,0E0,3.1769009E0,1.2982391E1,1.0622538E2,1.3968824E0,0E0,1.9231799E0,0E0,5.153137E0,0E0,3.0282974E0,1.6137505E0,2.0422473E0,5.599955E-1,0E0,0E0,0E0,0E0,0E0,0E0,0E0,0E0,0E0,0E0,0E0,0E0],"parents":[2147483647,0,0,1,1,2,2,3,3,4,4,5,5,8,8,10,10,12,12,14,14,15,15,16,16,17,17,19,19,21,21,23,23,24,24,25,25,26,26],"right_children":[2,4,6,8,10,12,-1,-1,14,-1,16,-1,18,-1,20,22,24,26,-1,28,-1,30,-1,32,34,36,38,-1,-1,-1,-1,-1,-1,-1,-1,-1,-1,-1,-1],"split_conditions":[4.0422688E0,2.9674983E0,4.4768605E0,2.520064E0,7.7302737E0,9.066065E0,1.1021028E-1,1.09989695E-1,8.908313E0,1.060189E-1,8.0022246E-1,9.580909E-2,1.1090162E1,9.33612E-2,1.12472315E1,1.2382659E1,-4.8950203E-2,9.751166E-2,9.3710445E-2,1.1189871E2,9.5426336E-2,2.2096822E-2,1.01057604E-1,-3.4704915E-1,3.2496926E-1,-1.4294314E-2,9.867607E0,8.769568E-2,-1.3949267E-2,-1.8285548E-2,-1.1361477E-2,-1.6538464E-2,1.0912316E-1,-1.0247145E-1,9.900688E-3,-1.1997627E-2,7.199715E-2,3.2796816E-3,-7.2134964E-2],"split_indices":[0,0,0,0,4,4,0,0,4,0,2,0,4,0,4,4,1,1,0,3,0,2,0,1,1,1,4,0,0,0,0,0,0,0,0,0,0,0,0],"split_type":[0,0,0,0,0,0,0,0,0,0,0,0,0,0,0,0,0,0,0,0,0,0,0,0,0,0,0,0,0,0,0,0,0,0,0,0,0,0,0],"sum_hessian":[5.135997E3,4.789442E3,3.465549E2,2.0871909E2,4.580723E3,2.2567162E1,3.2398773E2,1.8727956E2,2.143953E1,2.0798E1,4.559925E3,5.412265E0,1.7154896E1,5.550976E0,1.5888555E1,4.4512114E3,1.08713394E2,1.29393215E1,4.215575E0,1.10347805E1,4.8537736E0,4.442409E3,8.80241E0,7.040467E1,3.8308723E1,1.0129179E1,2.8101425E0,1.2518137E0,9.782968E0,1.8439441E3,2.598465E3,1.7198615E0,6.868481E1,3.7160313E1,1.1484096E0,5.0876765E0,5.041502E0,1.6713034E0,1.1388391E0],"tree_param":{"num_deleted":"0","num_feature":"5","num_nodes":"39","size_leaf_vector":"1"}},{"base_weights":[5.599965E-3,-6.518529E-2,1.0542438E0,1.0298378E0,-1.1178241E-1,5.3094256E-1,1.0908101E-1,1.0883947E-1,5.181501E-1,9.642846E-1,-1.1731369E-1,8.877356E-1,3.3877888E-1,9.272426E-2,3.488864E-1,1.04522444E-1,3.4657532E-1,-1.277794E-1,3.186103E-1,1.00312114E-1,1.3789395E-2,8.39137E-2,1.6767648E-1,6.261659E-2,9.31214E-2,-3.194311E-3,5.664707E-2,-1.3007465E-1,9.913846E-2,1.0409873E0,-8.362432E-1,-4.6766024E-2,8.119188E-2,2.024697E-2,-5.2754242E-2,-1.4512298E-2,-5.472686E-3,-1.852495E-2,1.07887544E-1,-9.9902295E-2,4.1381087E-2,-5.9526015E-2,1.726663E-2],"categories":[],"categories_nodes":[],"categories_segments":[],"categories_sizes":[],"default_left":[0,0,0,0,0,0,0,0,0,0,0,0,0,0,0,0,0,0,0,0,0,0,0,0,0,0,0,0,0,0,0,0,0,0,0,0,0,0,0,0,0,0,0],"id":20,"left_children":[1,3,5,7,9,11,-1,-1,13,15,17,19,21,-1,23,-1,25,27,29,-1,-1,-1,31,33,-1,-1,-1,35,-1,37,39,41,-1,-1,-1,-1,-1,-1,-1,-1,-1,-1,-1],"loss_changes":[3.742537E2,2.4111449E2,5.5214844E0,5.215332E0,2.7083477E1,1.2605E0,0E0,0E0,1.180151E0,8.017597E-1,2.0611942E1,4.9794483E-1,1.2648075E0,0E0,2.769495E0,0E0,3.6711854E-1,1.1441788E1,8.930069E1,0E0,0E0,0E0,1.9007436E0,1.1339312E0,0E0,0E0,0E0,4.9763412E0,0E0,3.2502365E0,8.826376E0,1.4341367E0,0E0,0E0,0E0,0E0,0E0,0E0,0E0,0E0,0E0,0E0,0E0],"parents":[2147483647,0,0,1,1,2,2,3,3,4,4,5,5,8,8,9,9,10,10,11,11,12,12,14,14,16,16,17,17,18,18,22,22,23,23,27,27,29,29,30,30,31,31],"right_children":[2,4,6,8,10,12,-1,-1,14,16,18,20,22,-1,24,-1,26,28,30,-1,-1,-1,32,34,-1,-1,-1,36,-1,38,40,42,-1,-1,-1,-1,-1,-1,-1,-1,-1,-1,-1],"split_conditions":[4.0422688E0,2.9674983E0,4.4768605E0,2.520064E0,8.259496E0,1.1699673E2,1.0908101E-1,1.0883947E-1,8.259496E0,7.7302737E0,1.3672646E2,1.3346694E-1,9.037449E0,9.272426E-2,1.12472315E1,1.04522444E-1,1.17521935E2,1.2382659E1,-4.8950203E-2,1.00312114E-1,1.3789395E-2,8.39137E-2,1.1090162E1,1.3401496E-1,9.31214E-2,-3.194311E-3,5.664707E-2,3.6653724E0,9.913846E-2,5.5727863E-1,1.0092443E-2,-4.600386E-2,8.119188E-2,2.024697E-2,-5.2754242E-2,-1.4512298E-2,-5.472686E-3,-1.852495E-2,1.07887544E-1,-9.9902295E-2,4.1381087E-2,-5.9526015E-2,1.726663E-2],"split_indices":[0,0,0,0,4,3,0,0,4,4,3,1,4,0,4,0,3,4,1,0,0,0,4,2,0,0,0,0,0,2,1,1,0,0,0,0,0,0,0,0,0,0,0],"split_type":[0,0,0,0,0,0,0,0,0,0,0,0,0,0,0,0,0,0,0,0,0,0,0,0,0,0,0,0,0,0,0,0,0,0,0,0,0,0,0,0,0,0,0],"sum_hessian":[5.0399863E3,4.72217E3,3.1781674E2,1.9188191E2,4.530288E3,2.1771067E1,2.9604565E2,1.7116678E2,2.0715136E1,2.2281404E1,4.5080063E3,6.3539376E0,1.5417129E1,4.7519865E0,1.5963149E1,1.9088144E1,3.1932604E0,4.4030054E3,1.0500093E2,5.2138534E0,1.1400843E0,2.933714E0,1.2483415E1,1.1444573E1,4.5185766E0,1.4874915E0,1.7057691E0,4.394876E3,8.1294985E0,6.465618E1,4.0344746E1,1.0061689E1,2.4217246E0,9.783135E0,1.6614379E0,3.662485E3,7.32391E2,1.8212945E0,6.283489E1,3.5874104E1,4.4706416E0,2.3856869E0,7.676003E0],"tree_param":{"num_deleted":"0","num_feature":"5","num_nodes":"43","size_leaf_vector":"1"}},{"base_weights":[5.772717E-3,-5.9145477E-2,1.0410413E0,1.0144595E0,-1.0157665E-1,5.0559866E-1,1.0807305E-1,1.078084E-1,4.9028093E-1,1.0311635E-1,-1.0624647E-1,9.028361E-2,3.3422062E-1,8.8530004E-2,3.1648162E-1,-1.1558627E-1,3.131608E-1,4.6604523E-1,-2.756663E-1,-6.6282086E-2,4.739591E-1,-1.1768171E-1,9.730043E-2,1.0275389E0,-8.169239E-1,5.4400522E-2,7.7062446E-1,-6.5436766E-2,1.5451516E-2,2.0793943E-2,9.090941E-2,4.5245457E-2,-1.1948907E-2,1.0615774E-1,-3.3374157E-2,-9.890016E-2,3.7257396E-2,6.4325206E-2,-2.6648322E-2,-1.9730542E-2,1.1219781E-1],"categories":[],"categories_nodes":[],"categories_segments":[],"categories_sizes":[],"default_left":[0,0,0,0,0,0,0,0,0,0,0,0,0,0,0,0,0,0,0,0,0,0,0,0,0,0,0,0,0,0,0,0,0,0,0,0,0,0,0,0,0],"id":21,"left_children":[1,3,5,7,9,11,-1,-1,13,-1,15,-1,17,-1,19,21,23,25,27,-1,29,31,-1,33,35,37,39,-1,-1,-1,-1,-1,-1,-1,-1,-1,-1,-1,-1,-1,-1],"loss_changes":[3.3293048E2,2.1245593E2,5.6654053E0,5.3851776E0,2.3834969E1,1.1994138E0,0E0,0E0,1.1634388E0,0E0,1.7536987E1,0E0,1.4946353E0,0E0,2.8061633E0,1.008535E1,7.9627594E1,1.7565136E0,6.9547415E-1,0E0,1.489819E0,4.5504646E0,0E0,3.145462E0,8.219435E0,1.5273163E0,2.9992566E0,0E0,0E0,0E0,0E0,0E0,0E0,0E0,0E0,0E0,0E0,0E0,0E0,0E0,0E0],"parents":[2147483647,0,0,1,1,2,2,3,3,4,4,5,5,8,8,10,10,12,12,14,14,15,15,16,16,17,17,18,18,20,20,21,21,23,23,24,24,25,25,26,26],"right_children":[2,4,6,8,10,12,-1,-1,14,-1,16,-1,18,-1,20,22,24,26,28,-1,30,32,-1,34,36,38,40,-1,-1,-1,-1,-1,-1,-1,-1,-1,-1,-1,-1,-1,-1],"split_conditions":[4.0422688E0,2.9674983E0,4.4768605E0,2.520064E0,7.7302737E0,1.1632988E2,1.0807305E-1,1.078084E-1,8.908313E0,1.0311635E-1,1.3672646E2,9.028361E-2,1.5600182E-1,8.8530004E-2,9.360351E0,1.2382659E1,-4.8950203E-2,1.594968E-2,1.1867044E2,-6.6282086E-2,1.12472315E1,1.0266309E2,9.730043E-2,3.4978836E0,1.0092443E-2,9.348759E0,-1.2312372E-1,-6.5436766E-2,1.5451516E-2,2.0793943E-2,9.090941E-2,4.5245457E-2,-1.1948907E-2,1.0615774E-1,-3.3374157E-2,-9.890016E-2,3.7257396E-2,6.4325206E-2,-2.6648322E-2,-1.9730542E-2,1.1219781E-1],"split_indices":[0,0,0,0,4,3,0,0,4,0,3,0,1,0,4,4,1,2,3,0,4,3,0,0,1,4,1,0,0,0,0,0,0,0,0,0,0,0,0,0,0],"split_type":[0,0,0,0,0,0,0,0,0,0,0,0,0,0,0,0,0,0,0,0,0,0,0,0,0,0,0,0,0,0,0,0,0,0,0,0,0,0,0,0,0],"sum_hessian":[4.9518345E3,4.6605312E3,2.913033E2,1.7632027E2,4.484211E3,2.1050657E1,2.7025266E2,1.562928E2,2.0027464E1,1.7508186E1,4.4667026E3,5.058185E0,1.5992473E1,4.86844E0,1.5159024E1,4.370109E3,9.6593735E1,1.3344058E1,2.6484149E0,1.6554313E0,1.3503593E1,4.362603E3,7.505738E0,5.9237656E1,3.735608E1,6.1758657E0,7.168192E0,1.1313292E0,1.5170857E0,9.297464E0,4.206129E0,1.2997947E1,4.3496055E3,5.8007355E1,1.2302994E0,3.278222E1,4.5738573E0,1.8240104E0,4.3518553E0,2.0258105E0,5.1423817E0],"tree_param":{"num_deleted":"0","num_feature":"5","num_nodes":"41","size_leaf_vector":"1"}},{"base_weights":[5.877108E-3,-5.360572E-2,1.028029E0,9.9939215E-1,-9.222893E-2,4.7664896E-1,1.07170224E-1,1.06880106E-1,4.622754E-1,9.276876E-1,-9.686954E-2,9.0119965E-2,3.137869E-1,8.864802E-2,3.009395E-1,1.0178261E-1,3.3608595E-1,-1.0498686E-1,3.207993E-1,9.883133E-2,8.8119276E-2,4.382979E-2,8.877441E-2,-2.1232313E-3,5.7991233E-2,-1.08256154E-1,5.452417E-1,1.0183498E0,-9.5783573E-1,2.61087E-1,-3.872273E-1,1.776709E-2,-5.1617958E-2,-4.6695187E-3,-1.2365929E-2,1.1477107E-1,2.9976865E-2,-2.683931E-2,1.0524266E-1,-1.003169E-1,1.0711829E-2,-1.0671103E-2,6.723459E-2,1.5498496E-3,-7.1106E-2],"categories":[],"categories_nodes":[],"categories_segments":[],"categories_sizes":[],"default_left":[0,0,0,0,0,0,0,0,0,0,0,0,0,0,0,0,0,0,0,0,0,0,0,0,0,0,0,0,0,0,0,0,0,0,0,0,0,0,0,0,0,0,0,0,0],"id":22,"left_children":[1,3,5,7,9,11,-1,-1,13,15,17,-1,19,-1,21,-1,23,25,27,29,-1,31,-1,-1,-1,33,35,37,39,41,43,-1,-1,-1,-1,-1,-1,-1,-1,-1,-1,-1,-1,-1,-1],"loss_changes":[2.9626157E2,1.8737062E2,5.941925E0,5.583023E0,2.1117828E1,1.2015853E0,0E0,0E0,1.1305175E0,7.360554E-1,1.5031185E1,0E0,1.9924673E0,0E0,2.421082E0,0E0,3.752815E-1,9.2849655E0,7.641262E1,1.1651497E0,0E0,1.0203254E0,0E0,0E0,0E0,4.08976E0,2.8914394E0,2.7032814E0,1.5736485E0,1.6921263E0,5.03911E-1,0E0,0E0,0E0,0E0,0E0,0E0,0E0,0E0,0E0,0E0,0E0,0E0,0E0,0E0],"parents":[2147483647,0,0,1,1,2,2,3,3,4,4,5,5,8,8,9,9,10,10,12,12,14,14,16,16,17,17,18,18,19,19,21,21,25,25,26,26,27,27,28,28,29,29,30,30],"right_children":[2,4,6,8,10,12,-1,-1,14,16,18,-1,20,-1,22,-1,24,26,28,30,-1,32,-1,-1,-1,34,36,38,40,42,44,-1,-1,-1,-1,-1,-1,-1,-1,-1,-1,-1,-1,-1,-1],"split_conditions":[4.0422688E0,2.9674983E0,4.4768605E0,2.520064E0,8.259496E0,9.066065E0,1.07170224E-1,1.06880106E-1,8.259496E0,7.7302737E0,8.0022246E-1,9.0119965E-2,1.1090162E1,8.864802E-2,1.12472315E1,1.0178261E-1,3.5240748E0,1.1416199E1,-4.8950203E-2,9.751166E-2,8.8119276E-2,1.3401496E-1,8.877441E-2,-2.1232313E-3,5.7991233E-2,9.5694275E0,3.2435024E0,-4.5434752E-1,3.2496926E-1,2.2096822E-2,9.867607E0,1.776709E-2,-5.1617958E-2,-4.6695187E-3,-1.2365929E-2,1.1477107E-1,2.9976865E-2,-2.683931E-2,1.0524266E-1,-1.003169E-1,1.0711829E-2,-1.0671103E-2,6.723459E-2,1.5498496E-3,-7.1106E-2],"split_indices":[0,0,0,0,4,4,0,0,4,4,2,0,4,0,4,0,0,4,1,1,0,2,0,0,0,4,0,1,1,2,4,0,0,0,0,0,0,0,0,0,0,0,0,0,0],"split_type":[0,0,0,0,0,0,0,0,0,0,0,0,0,0,0,0,0,0,0,0,0,0,0,0,0,0,0,0,0,0,0,0,0,0,0,0,0,0,0,0,0,0,0,0,0],"sum_hessian":[4.8707783E3,4.603813E3,2.669655E2,1.6200975E2,4.441803E3,2.0468052E1,2.4649745E2,1.4259325E2,1.94165E1,1.9217722E1,4.4225854E3,4.417901E0,1.605015E1,4.111471E0,1.530503E1,1.6051588E1,3.1661336E0,4.3390063E3,8.3579155E1,1.2491907E1,3.558243E0,1.1389422E1,3.9156077E0,1.6544787E0,1.511655E0,4.3181284E3,2.0877676E1,5.4209244E1,2.9369913E1,9.712528E0,2.779379E0,9.7434845E0,1.6459374E0,8.650115E2,3.4531172E3,4.9799037E0,1.5897773E1,1.2211797E0,5.2988064E1,2.8226383E1,1.14353E0,5.518097E0,4.1944313E0,1.6631669E0,1.1162121E0],"tree_param":{"num_deleted":"0","num_feature":"5","num_nodes":"45","size_leaf_vector":"1"}},{"base_weights":[5.939322E-3,-4.624685E-2,1.063587E-1,1.06040575E-1,-7.886161E-2,9.594874E-1,-8.498449E-2,1.0327002E-1,3.604092E-1,-8.847152E-2,1.0214932E-1,5.710703E-1,-1.5765445E-2,-9.601693E-2,3.054502E-1,-6.011615E-3,8.83502E-2,7.85629E-3,-1.02331815E-2,9.9947296E-2,-7.62917E-2],"categories":[],"categories_nodes":[],"categories_segments":[],"categories_sizes":[],"default_left":[0,0,0,0,0,0,0,0,0,0,0,0,0,0,0,0,0,0,0,0,0],"id":23,"left_children":[1,3,-1,-1,5,7,9,-1,11,13,-1,15,-1,17,19,-1,-1,-1,-1,-1,-1],"loss_changes":[2.6488544E2,1.6515833E2,0E0,0E0,2.8332344E1,7.7388763E-1,1.7138124E1,0E0,5.68232E-1,1.3123726E1,0E0,7.1006775E-1,0E0,4.7744217E0,6.233298E1,0E0,0E0,0E0,0E0,0E0,0E0],"parents":[2147483647,0,0,1,1,4,4,5,5,6,6,8,8,9,9,11,11,13,13,14,14],"right_children":[2,4,-1,-1,6,8,10,-1,12,14,-1,16,-1,18,20,-1,-1,-1,-1,-1,-1],"split_conditions":[4.4768605E0,2.520064E0,1.063587E-1,1.06040575E-1,8.259496E0,7.7302737E0,1.2382659E1,1.0327002E-1,7.328955E-2,1.3672646E2,1.0214932E-1,3.2833645E0,-1.5765445E-2,1.0963633E2,-4.8950203E-2,-6.011615E-3,8.83502E-2,7.85629E-3,-1.02331815E-2,9.9947296E-2,-7.62917E-2],"split_indices":[0,0,0,0,4,4,4,0,2,3,0,0,0,3,1,0,0,0,0,0,0],"split_type":[0,0,0,0,0,0,0,0,0,0,0,0,0,0,0,0,0,0,0,0,0],"sum_hessian":[4.797229E3,4.572567E3,2.2466212E2,1.3000055E2,4.4425664E3,2.5130344E1,4.417436E3,2.1748648E1,3.3816962E0,4.4044756E3,1.2960533E1,2.33137E0,1.050326E0,4.3224375E3,8.203825E1,1.0393074E0,1.2920628E0,1.5049355E2,4.171944E3,4.9770985E1,3.2267273E1],"tree_param":{"num_deleted":"0","num_feature":"5","num_nodes":"21","size_leaf_vector":"1"}},{"base_weights":[5.914934E-3,-4.1797213E-2,1.0562658E-1,1.0527762E-1,-7.14451E-2,1.02103665E-1,-7.6632515E-2,-7.980933E-2,1.00616336E-1,-8.656233E-2,2.9809037E-1,-1.0152982E-2,-1.3324318E-3,9.8133884E-2,-7.366632E-2],"categories":[],"categories_nodes":[],"categories_segments":[],"categories_sizes":[],"default_left":[0,0,0,0,0,0,0,0,0,0,0,0,0,0,0],"id":24,"left_children":[1,3,-1,-1,5,-1,7,9,-1,11,13,-1,-1,-1,-1],"loss_changes":[2.3715994E2,1.4697972E2,0E0,0E0,2.5061392E1,0E0,1.51760845E1,1.1194675E1,0E0,4.712845E0,5.5204487E1,0E0,0E0,0E0,0E0],"parents":[2147483647,0,0,1,1,4,4,6,6,7,7,9,9,10,10],"right_children":[2,4,-1,-1,6,-1,8,10,-1,12,14,-1,-1,-1,-1],"split_conditions":[4.4768605E0,2.520064E0,1.0562658E-1,1.0527762E-1,7.7302737E0,1.02103665E-1,1.2382659E1,1.3672646E2,1.00616336E-1,3.6653724E0,-4.8950203E-2,-1.0152982E-2,-1.3324318E-3,9.8133884E-2,-7.366632E-2],"split_indices":[0,0,0,0,4,0,4,3,0,0,1,0,0,0,0],"split_type":[0,0,0,0,0,0,0,0,0,0,0,0,0,0,0],"sum_hessian":[4.730481E3,4.525854E3,2.0462654E2,1.1844543E2,4.4074087E3,1.9903276E1,4.3875054E3,4.375594E3,1.1911282E1,4.299533E3,7.60609E1,3.56963E3,7.2990356E2,4.584261E1,3.0218283E1],"tree_param":{"num_deleted":"0","num_feature":"5","num_nodes":"15","size_leaf_vector":"1"}},{"base_weights":[5.842515E-3,-3.7745055E-2,1.0496352E-1,1.04580656E-1,-6.468597E-2,9.2670095E-1,-6.980785E-2,1.0098714E-1,3.4738383E-1,-7.270947E-2,9.914237E-2,5.4938745E-1,-1.4521985E-2,-7.877947E-2,2.9051998E-1,-5.180373E-3,8.497962E-2,-1.170555E-2,-5.171046E-3,9.62537E-2,-7.1006745E-2],"categories":[],"categories_nodes":[],"categories_segments":[],"categories_sizes":[],"default_left":[0,0,0,0,0,0,0,0,0,0,0,0,0,0,0,0,0,0,0,0,0],"id":25,"left_children":[1,3,-1,-1,5,7,9,-1,11,13,-1,15,-1,17,19,-1,-1,-1,-1,-1,-1],"loss_changes":[2.1255116E2,1.30984E2,0E0,0E0,2.2289162E1,7.3646927E-1,1.3483221E1,0E0,5.1337457E-1,9.601246E0,0E0,6.398764E-1,0E0,4.4219E0,4.884076E1,0E0,0E0,0E0,0E0,0E0,0E0],"parents":[2147483647,0,0,1,1,4,4,5,5,6,6,8,8,9,9,11,11,13,13,14,14],"right_children":[2,4,-1,-1,6,8,10,-1,12,14,-1,16,-1,18,20,-1,-1,-1,-1,-1,-1],"split_conditions":[4.4768605E0,2.520064E0,1.0496352E-1,1.04580656E-1,8.259496E0,7.7302737E0,1.2382659E1,1.0098714E-1,7.328955E-2,1.3672646E2,9.914237E-2,3.2833645E0,-1.4521985E-2,2.2096822E-2,-4.8950203E-2,-5.180373E-3,8.497962E-2,-1.170555E-2,-5.171046E-3,9.62537E-2,-7.1006745E-2],"split_indices":[0,0,0,0,4,4,4,0,2,3,0,0,0,2,1,0,0,0,0,0,0],"split_type":[0,0,0,0,0,0,0,0,0,0,0,0,0,0,0,0,0,0,0,0,0],"sum_hessian":[4.669954E3,4.4836846E3,1.8626962E2,1.07858185E2,4.375826E3,2.1566149E1,4.3542603E3,1.8208775E1,3.357375E0,4.3433164E3,1.094403E1,2.2992435E0,1.0581315E0,4.2726973E3,7.061876E1,1.0418346E0,1.257409E0,1.7685765E3,2.5041208E3,4.2268387E1,2.835037E1],"tree_param":{"num_deleted":"0","num_feature":"5","num_nodes":"21","size_leaf_vector":"1"}},{"base_weights":[5.7578003E-3,-3.403519E-2,1.0436051E-1,1.0394037E-1,-5.8510013E-2,9.990838E-2,-6.280728E-2,-6.5452866E-2,9.771304E-2,-7.089181E-2,2.8271243E-1,8.831767E-3,-7.672444E-3,9.429159E-2,-6.831735E-2],"categories":[],"categories_nodes":[],"categories_segments":[],"categories_sizes":[],"default_left":[0,0,0,0,0,0,0,0,0,0,0,0,0,0,0],"id":26,"left_children":[1,3,-1,-1,5,-1,7,9,-1,11,13,-1,-1,-1,-1],"loss_changes":[1.9066237E2,1.1687489E2,0E0,0E0,1.982394E1,0E0,1.1980885E1,8.203306E0,0E0,3.9586983E0,4.315848E1,0E0,0E0,0E0,0E0],"parents":[2147483647,0,0,1,1,4,4,6,6,7,7,9,9,10,10],"right_children":[2,4,-1,-1,6,-1,8,10,-1,12,14,-1,-1,-1,-1],"split_conditions":[4.4768605E0,2.520064E0,1.0436051E-1,1.0394037E-1,7.7302737E0,9.990838E-2,1.2382659E1,1.3672646E2,9.771304E-2,1.0963633E2,-4.8950203E-2,8.831767E-3,-7.672444E-3,9.429159E-2,-6.831735E-2],"split_indices":[0,0,0,0,4,0,4,3,0,3,1,0,0,0,0],"split_type":[0,0,0,0,0,0,0,0,0,0,0,0,0,0,0],"sum_hessian":[4.614769E3,4.4452954E3,1.6947366E2,9.817064E1,4.3471245E3,1.6655159E1,4.3304697E3,4.3204155E3,1.00540085E1,4.254745E3,6.567016E1,1.4986382E2,4.1048813E3,3.902175E1,2.664841E1],"tree_param":{"num_deleted":"0","num_feature":"5","num_nodes":"15","size_leaf_vector":"1"}},{"base_weights":[5.6402353E-3,-3.0666893E-2,1.0380959E-1,1.0334851E-1,-5.2897148E-2,9.8856695E-2,-5.6810196E-2,-5.922643E-2,9.631585E-2,-6.4112686E-2,2.7465534E-1,-7.7871564E-3,2.798523E-4,9.06109E-2,-6.8133324E-2],"categories":[],"categories_nodes":[],"categories_segments":[],"categories_sizes":[],"default_left":[0,0,0,0,0,0,0,0,0,0,0,0,0,0,0],"id":27,"left_children":[1,3,-1,-1,5,-1,7,9,-1,11,13,-1,-1,-1,-1],"loss_changes":[1.7117104E2,1.0441128E2,0E0,0E0,1.7669754E1,0E0,1.06711035E1,7.0287886E0,0E0,3.900341E0,3.815044E1,0E0,0E0,0E0,0E0],"parents":[2147483647,0,0,1,1,4,4,6,6,7,7,9,9,10,10],"right_children":[2,4,-1,-1,6,-1,8,10,-1,12,14,-1,-1,-1,-1],"split_conditions":[4.4768605E0,2.520064E0,1.0380959E-1,1.0334851E-1,7.7302737E0,9.8856695E-2,1.2382659E1,1.3672646E2,9.631585E-2,3.6653724E0,-1.8159859E-2,-7.7871564E-3,2.798523E-4,9.06109E-2,-6.8133324E-2],"split_indices":[0,0,0,0,4,0,4,3,0,0,1,0,0,0,0],"split_type":[0,0,0,0,0,0,0,0,0,0,0,0,0,0,0],"sum_hessian":[4.564477E3,4.410354E3,1.5412332E2,8.931666E1,4.321037E3,1.5232563E1,4.3058047E3,4.2965684E3,9.236346E0,4.2353926E3,6.1175602E1,3.5128792E3,7.225135E2,3.687256E1,2.4303043E1],"tree_param":{"num_deleted":"0","num_feature":"5","num_nodes":"15","size_leaf_vector":"1"}},{"base_weights":[5.499219E-3,-2.7606793E-2,1.0330378E-1,1.0279777E-1,-4.7793712E-2,8.801057E-1,-5.1741492E-2,9.7822495E-2,3.3917117E-1,-5.3951994E-2,9.494004E-2,5.3270596E-1,-1.3126369E-2,-1.11644585E-2,-8.7704055E-2,-4.1194456E-3,8.208035E-2,-2.8777805E-3,9.521064E-2,-8.0591375E-3,-9.0519674E-2],"categories":[],"categories_nodes":[],"categories_segments":[],"categories_sizes":[],"default_left":[0,0,0,0,0,0,0,0,0,0,0,0,0,0,0,0,0,0,0,0,0],"id":28,"left_children":[1,3,-1,-1,5,7,9,-1,11,13,-1,15,-1,17,19,-1,-1,-1,-1,-1,-1],"loss_changes":[1.5378854E2,9.338021E1,0E0,0E0,1.57921295E1,6.3774586E-1,9.526056E0,0E0,4.6464357E-1,6.1698112E0,0E0,5.743737E-1,0E0,3.201574E1,1.3815231E1,0E0,0E0,0E0,0E0,0E0,0E0],"parents":[2147483647,0,0,1,1,4,4,5,5,6,6,8,8,9,9,11,11,13,13,14,14],"right_children":[2,4,-1,-1,6,8,10,-1,12,14,-1,16,-1,18,20,-1,-1,-1,-1,-1,-1],"split_conditions":[4.4768605E0,2.520064E0,1.0330378E-1,1.0279777E-1,8.259496E0,7.7302737E0,1.2382659E1,9.7822495E-2,7.328955E-2,-1.55606195E-2,9.494004E-2,3.2833645E0,-1.3126369E-2,8.0022246E-1,8.0022246E-1,-4.1194456E-3,8.208035E-2,-2.8777805E-3,9.521064E-2,-8.0591375E-3,-9.0519674E-2],"split_indices":[0,0,0,0,4,4,4,0,2,1,0,0,0,2,2,0,0,0,0,0,0],"split_type":[0,0,0,0,0,0,0,0,0,0,0,0,0,0,0,0,0,0,0,0,0],"sum_hessian":[4.519E3,4.3788906E3,1.4010927E2,8.123335E1,4.297657E3,1.7266829E1,4.2803906E3,1.393143E1,3.3353987E0,4.2719043E3,8.486177E0,2.2694058E0,1.0659927E0,1.8843906E3,2.3875137E3,1.0449134E0,1.2244924E0,1.8515061E3,3.2884544E1,2.368009E3,1.9504547E1],"tree_param":{"num_deleted":"0","num_feature":"5","num_nodes":"21","size_leaf_vector":"1"}},{"base_weights":[5.353453E-3,-2.4820719E-2,1.0283681E-1,1.0228147E-1,-4.3151263E-2,9.679719E-2,-4.6399675E-2,-4.8419017E-2,9.357633E-2,-5.241914E-2,2.637018E-1,-8.786977E-3,-2.7484568E-3,8.86191E-2,-6.0190212E-2],"categories":[],"categories_nodes":[],"categories_segments":[],"categories_sizes":[],"default_left":[0,0,0,0,0,0,0,0,0,0,0,0,0,0,0],"id":29,"left_children":[1,3,-1,-1,5,-1,7,9,-1,11,13,-1,-1,-1,-1],"loss_changes":[1.3826314E2,8.359823E1,0E0,0E0,1.4093131E1,0E0,8.502857E0,5.3281937E0,0E0,3.713254E0,2.9644716E1,0E0,0E0,0E0,0E0],"parents":[2147483647,0,0,1,1,4,4,6,6,7,7,9,9,10,10],"right_children":[2,4,-1,-1,6,-1,8,10,-1,12,14,-1,-1,-1,-1],"split_conditions":[4.4768605E0,2.520064E0,1.0283681E-1,1.0228147E-1,7.7302737E0,9.679719E-2,1.2382659E1,1.3672646E2,9.357633E-2,2.2096822E-2,-4.8950203E-2,-8.786977E-3,-2.7484568E-3,8.86191E-2,-6.0190212E-2],"split_indices":[0,0,0,0,4,0,4,3,0,2,1,0,0,0,0],"split_type":[0,0,0,0,0,0,0,0,0,0,0,0,0,0,0],"sum_hessian":[4.477257E3,4.34993E3,1.2732696E2,7.385986E1,4.2760703E3,1.2742574E1,4.2633276E3,4.255529E3,7.798739E0,4.202502E3,5.3026997E1,1.734277E3,2.4682249E3,3.0831263E1,2.2195732E1],"tree_param":{"num_deleted":"0","num_feature":"5","num_nodes":"15","size_leaf_vector":"1"}},{"base_weights":[5.1891585E-3,-2.2297494E-2,1.0240307E-1,1.01793684E-1,-3.893924E-2,9.577307E-2,-4.1900944E-2,-4.5002036E-2,5.438196E-1,-4.8564747E-2,2.5050348E-1,1.072396E0,2.7317712E-1,-4.3778378E-3,-2.3260843E-2,8.5949615E-2,-5.7429384E-2,1.8258223E-2,1.3650024E-1,-1.2528089E-2,9.274142E-2],"categories":[],"categories_nodes":[],"categories_segments":[],"categories_sizes":[],"default_left":[0,0,0,0,0,0,0,0,0,0,0,0,0,0,0,0,0,0,0,0,0],"id":30,"left_children":[1,3,-1,-1,5,-1,7,9,11,13,15,17,19,-1,-1,-1,-1,-1,-1,-1,-1],"loss_changes":[1.2438351E2,7.491202E1,0E0,0E0,1.26088E1,0E0,7.737265E0,4.4600554E0,2.9171777E0,3.6678638E0,2.5855192E1,1.6402626E0,4.3348007E0,0E0,0E0,0E0,0E0,0E0,0E0,0E0,0E0],"parents":[2147483647,0,0,1,1,4,4,6,6,7,7,8,8,9,9,10,10,11,11,12,12],"right_children":[2,4,-1,-1,6,-1,8,10,12,14,16,18,20,-1,-1,-1,-1,-1,-1,-1,-1],"split_conditions":[4.4768605E0,2.520064E0,1.0240307E-1,1.01793684E-1,7.7302737E0,9.577307E-2,1.1416199E1,1.3672646E2,3.2435024E0,1.0962191E1,-4.8950203E-2,3.1094497E-2,3.6653724E0,-4.3778378E-3,-2.3260843E-2,8.5949615E-2,-5.7429384E-2,1.8258223E-2,1.3650024E-1,-1.2528089E-2,9.274142E-2],"split_indices":[0,0,0,0,4,0,4,3,0,4,1,2,0,0,0,0,0,0,0,0,0],"split_type":[0,0,0,0,0,0,0,0,0,0,0,0,0,0,0,0,0,0,0,0,0],"sum_hessian":[4.4397314E3,4.324054E3,1.1567767E2,6.713987E1,4.256914E3,1.1657228E1,4.245257E3,4.223817E3,2.1439806E1,4.1743257E3,4.949137E1,6.2570696E0,1.5182736E1,4.0697236E3,1.04602196E2,2.8446043E1,2.1045326E1,1.950277E0,4.3067927E0,9.938362E0,5.244374E0],"tree_param":{"num_deleted":"0","num_feature":"5","num_nodes":"21","size_leaf_vector":"1"}},{"base_weights":[5.0430866E-3,-1.9984446E-2,1.0199749E-1,1.013289E-1,-3.5091776E-2,8.327667E-1,-3.8158927E-2,9.474325E-2,3.2922822E-1,-3.9888177E-2,9.115591E-2,5.1531076E-1,-1.2041094E-2,-3.3780183E-3,-6.874447E-2,-3.3753302E-3,7.9306304E-2,-1.6840671E-3,9.1184996E-2,-5.593219E-2,-5.7365433E-3],"categories":[],"categories_nodes":[],"categories_segments":[],"categories_sizes":[],"default_left":[0,0,0,0,0,0,0,0,0,0,0,0,0,0,0,0,0,0,0,0,0],"id":31,"left_children":[1,3,-1,-1,5,7,9,-1,11,13,-1,15,-1,17,19,-1,-1,-1,-1,-1,-1],"loss_changes":[1.1195422E2,6.718294E1,0E0,0E0,1.1319473E1,5.528755E-1,6.9776397E0,0E0,4.2272243E-1,4.445572E0,0E0,5.206209E-1,0E0,2.2981424E1,1.3124963E1,0E0,0E0,0E0,0E0,0E0,0E0],"parents":[2147483647,0,0,1,1,4,4,5,5,6,6,8,8,9,9,11,11,13,13,14,14],"right_children":[2,4,-1,-1,6,8,10,-1,12,14,-1,16,-1,18,20,-1,-1,-1,-1,-1,-1],"split_conditions":[4.4768605E0,2.520064E0,1.0199749E-1,1.013289E-1,8.259496E0,7.7302737E0,1.2382659E1,9.474325E-2,7.328955E-2,-1.55606195E-2,9.115591E-2,3.2833645E0,-1.2041094E-2,8.0022246E-1,-1.2021237E-2,-3.3753302E-3,7.9306304E-2,-1.6840671E-3,9.1184996E-2,-5.593219E-2,-5.7365433E-3],"split_indices":[0,0,0,0,4,4,4,0,2,1,0,0,0,2,1,0,0,0,0,0,0],"split_type":[0,0,0,0,0,0,0,0,0,0,0,0,0,0,0,0,0,0,0,0,0],"sum_hessian":[4.4056294E3,4.3005605E3,1.0506863E2,6.101963E1,4.239541E3,1.3977784E1,4.2255635E3,1.0667119E1,3.3106656E0,4.21884E3,6.7236743E0,2.238296E0,1.0723696E0,1.8629177E3,2.3559219E3,1.0470171E0,1.1912789E0,1.8368795E3,2.6038195E1,5.231569E1,2.3036062E3],"tree_param":{"num_deleted":"0","num_feature":"5","num_nodes":"21","size_leaf_vector":"1"}},{"base_weights":[4.878846E-3,-1.7901596E-2,1.0161542E-1,1.0088207E-1,-3.161601E-2,9.370165E-2,-3.4082267E-2,-3.566546E-2,8.9789554E-2,-2.793098E-3,-6.168892E-2,-1.5009595E-3,8.9097805E-2,-9.458401E-3,9.043949E-3],"categories":[],"categories_nodes":[],"categories_segments":[],"categories_sizes":[],"default_left":[0,0,0,0,0,0,0,0,0,0,0,0,0,0,0],"id":32,"left_children":[1,3,-1,-1,5,-1,7,9,-1,11,13,-1,-1,-1,-1],"loss_changes":[1.0082034E2,6.0300858E1,0E0,0E0,1.0124419E1,0E0,6.2512226E0,3.6002512E0,0E0,2.0330194E1,1.1763937E1,0E0,0E0,0E0,0E0],"parents":[2147483647,0,0,1,1,4,4,6,6,7,7,9,9,10,10],"right_children":[2,4,-1,-1,6,-1,8,10,-1,12,14,-1,-1,-1,-1],"split_conditions":[4.4768605E0,2.520064E0,1.0161542E-1,1.0088207E-1,7.7302737E0,9.370165E-2,1.2382659E1,-1.55606195E-2,8.9789554E-2,8.0022246E-1,3.6653724E0,-1.5009595E-3,8.9097805E-2,-9.458401E-3,9.043949E-3],"split_indices":[0,0,0,0,4,0,4,1,0,2,0,0,0,0,0],"split_type":[0,0,0,0,0,0,0,0,0,0,0,0,0,0,0],"sum_hessian":[4.374607E3,4.2791943E3,9.5412766E1,5.5449352E1,4.223745E3,9.764501E0,4.2139805E3,4.2077944E3,6.186231E0,1.8597275E3,2.348067E3,1.8356206E3,2.4106945E1,1.930918E3,4.1714883E2],"tree_param":{"num_deleted":"0","num_feature":"5","num_nodes":"15","size_leaf_vector":"1"}},{"base_weights":[4.708598E-3,-1.601988E-2,1.0125263E-1,1.0044845E-1,-2.846992E-2,9.264287E-2,-3.0722752E-2,-3.3317853E-2,4.8867768E-1,2.4935938E-2,-4.7954585E-2,1.0123591E0,2.2679238E-1,7.1986327E-3,-1.6177485E-2,6.0217502E-5,-8.656355E-3,1.2137464E-2,1.3075188E-1,-1.294301E-2,8.63075E-2],"categories":[],"categories_nodes":[],"categories_segments":[],"categories_sizes":[],"default_left":[0,0,0,0,0,0,0,0,0,0,0,0,0,0,0,0,0,0,0,0,0],"id":33,"left_children":[1,3,-1,-1,5,-1,7,9,11,13,15,17,19,-1,-1,-1,-1,-1,-1,-1,-1],"loss_changes":[9.083629E1,5.4163403E1,0E0,0E0,9.086019E0,0E0,5.679431E0,3.5665503E0,2.6437798E0,7.393751E0,6.2657537E0,1.6022091E0,3.5695002E0,0E0,0E0,0E0,0E0,0E0,0E0,0E0,0E0],"parents":[2147483647,0,0,1,1,4,4,6,6,7,7,8,8,9,9,10,10,11,11,12,12],"right_children":[2,4,-1,-1,6,-1,8,10,12,14,16,18,20,-1,-1,-1,-1,-1,-1,-1,-1],"split_conditions":[4.4768605E0,2.520064E0,1.0125263E-1,1.0044845E-1,7.7302737E0,9.264287E-2,1.1416199E1,9.5694275E0,3.2435024E0,9.878587E-2,-1.55606195E-2,3.1094497E-2,3.6653724E0,7.1986327E-3,-1.6177485E-2,6.0217502E-5,-8.656355E-3,1.2137464E-2,1.3075188E-1,-1.294301E-2,8.63075E-2],"split_indices":[0,0,0,0,4,0,4,4,0,2,1,2,0,0,0,0,0,0,0,0,0],"split_type":[0,0,0,0,0,0,0,0,0,0,0,0,0,0,0,0,0,0,0,0,0],"sum_hessian":[4.346428E3,4.259798E3,8.663008E1,5.038229E1,4.2094155E3,8.942084E0,4.2004736E3,4.180522E3,1.9951448E1,8.393257E2,3.3411965E3,5.6959095E0,1.4255539E1,6.708808E2,1.6844487E2,1.480377E3,1.8608196E3,1.7685343E0,3.927375E0,9.649728E0,4.605811E0],"tree_param":{"num_deleted":"0","num_feature":"5","num_nodes":"21","size_leaf_vector":"1"}},{"base_weights":[4.5181555E-3,-1.4325494E-2,1.009052E-1,1.000237E-1,-2.5620582E-2,7.8315717E-1,-2.8022317E-2,9.1562204E-2,3.1539413E-1,-2.9389502E-2,8.74205E-2,-4.0009627E-3,5.609379E-2,4.5508024E-1,-3.1010045E-2,7.137204E-2,-8.532267E-2,-9.723476E-3,-1.949559E-3],"categories":[],"categories_nodes":[],"categories_segments":[],"categories_sizes":[],"default_left":[0,0,0,0,0,0,0,0,0,0,0,0,0,0,0,0,0,0,0],"id":34,"left_children":[1,3,-1,-1,5,7,9,-1,11,13,-1,-1,-1,15,17,-1,-1,-1,-1],"loss_changes":[8.187703E1,4.8683563E1,0E0,0E0,8.18086E0,4.8392916E-1,5.1926384E0,0E0,3.9573953E-1,3.2985406E0,0E0,0E0,0E0,5.3498974E0,3.1782265E0,0E0,0E0,0E0,0E0],"parents":[2147483647,0,0,1,1,4,4,5,5,6,6,8,8,9,9,13,13,14,14],"right_children":[2,4,-1,-1,6,8,10,-1,12,14,-1,-1,-1,16,18,-1,-1,-1,-1],"split_conditions":[4.4768605E0,2.520064E0,1.009052E-1,1.000237E-1,8.259496E0,7.7302737E0,1.2382659E1,9.1562204E-2,1.313262E-2,1.0266309E2,8.74205E-2,-4.0009627E-3,5.609379E-2,7.507628E-2,2.99456E-3,7.137204E-2,-8.532267E-2,-9.723476E-3,-1.949559E-3],"split_indices":[0,0,0,0,4,4,4,0,1,3,0,0,0,1,2,0,0,0,0],"split_type":[0,0,0,0,0,0,0,0,0,0,0,0,0,0,0,0,0,0,0],"sum_hessian":[4.3236978E3,4.2450522E3,7.864549E1,4.5775646E1,4.1992764E3,1.1470702E1,4.1878057E3,8.193073E0,3.2776287E0,4.1824355E3,5.3704104E0,1.6812373E0,1.5963913E0,1.3010646E1,4.169425E3,1.1242565E1,1.7680805E0,6.164579E2,3.5529668E3],"tree_param":{"num_deleted":"0","num_feature":"5","num_nodes":"19","size_leaf_vector":"1"}},{"base_weights":[4.3259277E-3,-1.2803493E-2,1.0056951E-1,9.960362E-2,-2.3053508E-2,9.0455666E-2,-2.4935396E-2,-2.618994E-2,8.601437E-2,-3.1853493E-2,1.0463527E-1,-1.8217752E-3,-1.0838805E-2,3.7894487E-2,-7.45255E-3],"categories":[],"categories_nodes":[],"categories_segments":[],"categories_sizes":[],"default_left":[0,0,0,0,0,0,0,0,0,0,0,0,0,0,0],"id":35,"left_children":[1,3,-1,-1,5,-1,7,9,-1,11,13,-1,-1,-1,-1],"loss_changes":[7.383069E1,4.378586E1,0E0,0E0,7.3378153E0,0E0,4.667249E0,3.099023E0,0E0,4.1781683E0,8.559977E0,0E0,0E0,0E0,0E0],"parents":[2147483647,0,0,1,1,4,4,6,6,7,7,9,9,10,10],"right_children":[2,4,-1,-1,6,-1,8,10,-1,12,14,-1,-1,-1,-1],"split_conditions":[4.4768605E0,2.520064E0,1.0056951E-1,9.960362E-2,7.7302737E0,9.0455666E-2,1.2382659E1,1.3033154E2,8.601437E-2,1.2533945E2,3.4412687E0,-1.8217752E-3,-1.0838805E-2,3.7894487E-2,-7.45255E-3],"split_indices":[0,0,0,0,4,0,4,3,0,3,0,0,0,0,0],"split_type":[0,0,0,0,0,0,0,0,0,0,0,0,0,0,0],"sum_hessian":[4.3025244E3,4.231134E3,7.1390564E1,4.1589466E1,4.1895444E3,7.5111766E0,4.182033E3,4.177083E3,4.950349E0,4.0044814E3,1.7260149E2,3.399966E3,6.045154E2,6.7752235E1,1.0484924E2],"tree_param":{"num_deleted":"0","num_feature":"5","num_nodes":"15","size_leaf_vector":"1"}},{"base_weights":[4.1270154E-3,-1.1442263E-2,1.0024201E-1,9.918424E-2,-2.074574E-2,8.931997E-2,-2.2468233E-2,-2.3622086E-2,8.4589064E-2,-1.970503E-2,-2.0910004E-1,-5.481185E-3,5.250787E-4,-2.4730181E-2,1.0697662E-1],"categories":[],"categories_nodes":[],"categories_segments":[],"categories_sizes":[],"default_left":[0,0,0,0,0,0,0,0,0,0,0,0,0,0,0],"id":36,"left_children":[1,3,-1,-1,5,-1,7,9,-1,11,13,-1,-1,-1,-1],"loss_changes":[6.659837E1,3.940391E1,0E0,0E0,6.602923E0,0E0,4.2028055E0,3.0255597E0,0E0,3.579183E0,4.4729877E0,0E0,0E0,0E0,0E0],"parents":[2147483647,0,0,1,1,4,4,6,6,7,7,9,9,10,10],"right_children":[2,4,-1,-1,6,-1,8,10,-1,12,14,-1,-1,-1,-1],"split_conditions":[4.4768605E0,2.520064E0,1.0024201E-1,9.918424E-2,7.7302737E0,8.931997E-2,1.2382659E1,3.6259517E-1,8.4589064E-2,2.2096822E-2,3.8734624E0,-5.481185E-3,5.250787E-4,-2.4730181E-2,1.0697662E-1],"split_indices":[0,0,0,0,4,0,4,1,0,2,0,0,0,0,0],"split_type":[0,0,0,0,0,0,0,0,0,0,0,0,0,0,0],"sum_hessian":[4.2831265E3,4.218326E3,6.480005E1,3.7786896E1,4.1805396E3,6.890576E0,4.173649E3,4.169082E3,4.56697E0,4.0839404E3,8.514136E1,1.696366E3,2.3875747E3,8.345505E1,1.6863114E0],"tree_param":{"num_deleted":"0","num_feature":"5","num_nodes":"15","size_leaf_vector":"1"}},{"base_weights":[3.94716E-3,-1.01996455E-2,9.991949E-2,9.8761775E-2,-1.8643752E-2,7.31767E-1,-2.0545267E-2,8.815258E-2,3.0161938E-1,-2.2640018E-2,4.2714366E-1,4.8442197E-1,-1.2586348E-2,-1.813329E-2,-1.9919331E-1,9.4589686E-1,1.7475745E-1,-3.3687E-3,7.5461484E-2,1.4412738E-2,-2.407064E-3,1.393672E-1,-2.2846548E-2,4.6171113E-3,1.2440627E-1,-1.4024034E-2,7.9335384E-2],"categories":[],"categories_nodes":[],"categories_segments":[],"categories_sizes":[],"default_left":[0,0,0,0,0,0,0,0,0,0,0,0,0,0,0,0,0,0,0,0,0,0,0,0,0,0,0],"id":37,"left_children":[1,3,-1,-1,5,7,9,-1,11,13,15,17,-1,19,21,23,25,-1,-1,-1,-1,-1,-1,-1,-1,-1,-1],"loss_changes":[6.009171E1,3.5477577E1,0E0,0E0,5.9711766E0,4.155116E-1,3.9151769E0,0E0,3.932252E-1,3.2953544E0,2.380645E0,4.7120917E-1,0E0,3.8994598E0,5.1255984E0,1.5891185E0,2.8992512E0,0E0,0E0,0E0,0E0,0E0,0E0,0E0,0E0,0E0,0E0],"parents":[2147483647,0,0,1,1,4,4,5,5,6,6,8,8,9,9,10,10,11,11,13,13,14,14,15,15,16,16],"right_children":[2,4,-1,-1,6,8,10,-1,12,14,16,18,-1,20,22,24,26,-1,-1,-1,-1,-1,-1,-1,-1,-1,-1],"split_conditions":[4.4768605E0,2.520064E0,9.991949E-2,9.8761775E-2,8.259496E0,7.7302737E0,1.1416199E1,8.815258E-2,7.328955E-2,1.0962191E1,3.2435024E0,3.2833645E0,-1.2586348E-2,1.0963633E2,-5.083686E-1,3.1094497E-2,3.6653724E0,-3.3687E-3,7.5461484E-2,1.4412738E-2,-2.407064E-3,1.393672E-1,-2.2846548E-2,4.6171113E-3,1.2440627E-1,-1.4024034E-2,7.9335384E-2],"split_indices":[0,0,0,0,4,4,4,0,2,4,0,0,0,3,1,2,0,0,0,0,0,0,0,0,0,0,0],"split_type":[0,0,0,0,0,0,0,0,0,0,0,0,0,0,0,0,0,0,0,0,0,0,0,0,0,0,0],"sum_hessian":[4.266282E3,4.2074653E3,5.881666E1,3.4334126E1,4.1731313E3,9.577683E0,4.1635537E3,6.325917E0,3.2517667E0,4.145108E3,1.844567E1,2.1844459E0,1.067321E0,4.043008E3,1.0209979E2,5.13775E0,1.3307919E1,1.0487449E0,1.135701E0,1.4189561E2,3.9011125E3,1.0013216E0,1.0109847E2,1.566284E0,3.5714664E0,9.330163E0,3.9777553E0],"tree_param":{"num_deleted":"0","num_feature":"5","num_nodes":"27","size_leaf_vector":"1"}},{"base_weights":[3.8232154E-3,-9.03055E-3,9.959879E-2,9.833248E-2,-1.6696567E-2,8.6951464E-2,-1.8143337E-2,-1.9149818E-2,8.218881E-2,3.223156E-2,-3.2075685E-2,7.5154277E-3,-1.4039153E-2,1.0785746E-3,-6.6437046E-3],"categories":[],"categories_nodes":[],"categories_segments":[],"categories_sizes":[],"default_left":[0,0,0,0,0,0,0,0,0,0,0,0,0,0,0],"id":38,"left_children":[1,3,-1,-1,5,-1,7,9,-1,11,13,-1,-1,-1,-1],"loss_changes":[5.4230045E1,3.1954079E1,0E0,0E0,5.358506E0,0E0,3.5339403E0,2.762043E0,0E0,6.2056384E0,4.8934402E0,0E0,0E0,0E0,0E0],"parents":[2147483647,0,0,1,1,4,4,6,6,7,7,9,9,10,10],"right_children":[2,4,-1,-1,6,-1,8,10,-1,12,14,-1,-1,-1,-1],"split_conditions":[4.4768605E0,2.520064E0,9.959879E-2,9.833248E-2,7.7302737E0,8.6951464E-2,1.2382659E1,9.5694275E0,8.218881E-2,9.878587E-2,-1.55606195E-2,7.5154277E-3,-1.4039153E-2,1.0785746E-3,-6.6437046E-3],"split_indices":[0,0,0,0,4,0,4,4,0,2,1,0,0,0,0],"split_type":[0,0,0,0,0,0,0,0,0,0,0,0,0,0,0],"sum_hessian":[4.250614E3,4.1972285E3,5.338535E1,3.1199703E1,4.166029E3,5.8121686E0,4.160217E3,4.1562144E3,4.002544E0,8.351061E2,3.3211082E3,6.692594E2,1.6584663E2,1.4780786E3,1.8430294E3],"tree_param":{"num_deleted":"0","num_feature":"5","num_nodes":"15","size_leaf_vector":"1"}},{"base_weights":[3.6242655E-3,-8.053927E-3,9.927683E-2,9.789284E-2,-1.5015131E-2,8.571547E-2,-1.6343154E-2,-1.7271781E-2,8.070833E-2,4.1135654E-1,-1.8690795E-2,6.597817E-2,-7.877104E-2,-2.38986E-3,1.0077673E-2],"categories":[],"categories_nodes":[],"categories_segments":[],"categories_sizes":[],"default_left":[0,0,0,0,0,0,0,0,0,0,0,0,0,0,0],"id":39,"left_children":[1,3,-1,-1,5,-1,7,9,-1,11,13,-1,-1,-1,-1],"loss_changes":[4.8960094E1,2.879765E1,0E0,0E0,4.833474E0,0E0,3.1915448E0,2.5329933E0,0E0,4.6135607E0,2.5776412E0,0E0,0E0,0E0,0E0],"parents":[2147483647,0,0,1,1,4,4,6,6,7,7,9,9,10,10],"right_children":[2,4,-1,-1,6,-1,8,10,-1,12,14,-1,-1,-1,-1],"split_conditions":[4.4768605E0,2.520064E0,9.927683E-2,9.789284E-2,7.7302737E0,8.571547E-2,1.2382659E1,1.0266309E2,8.070833E-2,7.507628E-2,1.3033154E2,6.597817E-2,-7.877104E-2,-2.38986E-3,1.0077673E-2],"split_indices":[0,0,0,0,4,0,4,3,0,1,3,0,0,0,0],"split_type":[0,0,0,0,0,0,0,0,0,0,0,0,0,0,0],"sum_hessian":[4.236758E3,4.1883013E3,4.845674E1,2.8355387E1,4.159946E3,5.344809E0,4.154601E3,4.150899E3,3.7021902E0,1.274334E1,4.1381553E3,1.0928835E1,1.8145046E0,3.9660674E3,1.7208815E2],"tree_param":{"num_deleted":"0","num_feature":"5","num_nodes":"15","size_leaf_vector":"1"}},{"base_weights":[3.4475804E-3,-7.164266E-3,9.8950736E-2,9.743936E-2,-1.3488223E-2,6.798348E-1,-1.50130605E-2,8.444416E-2,2.8777075E-1,-1.6807407E-2,3.836325E-1,-5.114657E-3,5.288745E-2,-2.6582262E-1,-1.409151E-2,8.824275E-1,1.4439858E-1,-1.4999275E-3,-6.340558E-2,4.6030055E-3,-2.8495868E-3,4.9439113E-4,1.1744279E-1,-1.3917521E-2,7.304462E-2],"categories":[],"categories_nodes":[],"categories_segments":[],"categories_sizes":[],"default_left":[0,0,0,0,0,0,0,0,0,0,0,0,0,0,0,0,0,0,0,0,0,0,0,0,0],"id":40,"left_children":[1,3,-1,-1,5,7,9,-1,11,13,15,-1,-1,17,19,21,23,-1,-1,-1,-1,-1,-1,-1,-1],"loss_changes":[4.4211273E1,2.5962599E1,0E0,0E0,4.402554E0,3.4679317E-1,2.9725044E0,0E0,3.7183052E-1,2.7886405E0,2.0947623E0,0E0,0E0,4.0996923E0,3.5393429E0,1.4907637E0,2.3919828E0,0E0,0E0,0E0,0E0,0E0,0E0,0E0,0E0],"parents":[2147483647,0,0,1,1,4,4,5,5,6,6,8,8,9,9,10,10,13,13,14,14,15,15,16,16],"right_children":[2,4,-1,-1,6,8,10,-1,12,14,16,-1,-1,18,20,22,24,-1,-1,-1,-1,-1,-1,-1,-1],"split_conditions":[4.4768605E0,2.520064E0,9.8950736E-2,9.743936E-2,8.259496E0,7.7302737E0,1.1416199E1,8.444416E-2,1.313262E-2,8.845654E0,3.2435024E0,-5.114657E-3,5.288745E-2,8.758139E0,9.5694275E0,3.1094497E-2,3.6653724E0,-1.4999275E-3,-6.340558E-2,4.6030055E-3,-2.8495868E-3,4.9439113E-4,1.1744279E-1,-1.3917521E-2,7.304462E-2],"split_indices":[0,0,0,0,4,4,4,0,1,4,0,0,0,4,4,2,0,0,0,0,0,0,0,0,0],"split_type":[0,0,0,0,0,0,0,0,0,0,0,0,0,0,0,0,0,0,0,0,0,0,0,0,0],"sum_hessian":[4.2234404E3,4.179454E3,4.3986008E1,2.5774963E1,4.153679E3,8.139013E0,4.1455405E3,4.9196706E0,3.219343E0,4.127918E3,1.7622374E1,1.6657202E0,1.5536227E0,4.3490433E1,4.0844275E3,4.8408346E0,1.2781539E1,2.6488459E1,1.7001974E1,7.89013E2,3.2954146E3,1.4625847E0,3.37825E0,9.127492E0,3.6540463E0],"tree_param":{"num_deleted":"0","num_feature":"5","num_nodes":"25","size_leaf_vector":"1"}},{"base_weights":[3.2890416E-3,-6.3522295E-3,9.861753E-2,9.69686E-2,-1.2097877E-2,8.313761E-2,-1.3220829E-2,-1.4039304E-2,7.830902E-2,4.1073263E-2,-2.4576042E-2,4.4152513E-4,3.7074428E-2,-2.0393608E-2,-3.0300798E-4],"categories":[],"categories_nodes":[],"categories_segments":[],"categories_sizes":[],"default_left":[0,0,0,0,0,0,0,0,0,0,0,0,0,0,0],"id":41,"left_children":[1,3,-1,-1,5,-1,7,9,-1,11,13,-1,-1,-1,-1],"loss_changes":[3.9929867E1,2.3414225E1,0E0,0E0,3.94145E0,0E0,2.712613E0,2.4062004E0,0E0,8.03664E0,1.3438881E1,0E0,0E0,0E0,0E0],"parents":[2147483647,0,0,1,1,4,4,6,6,7,7,9,9,10,10],"right_children":[2,4,-1,-1,6,-1,8,10,-1,12,14,-1,-1,-1,-1],"split_conditions":[4.4768605E0,2.520064E0,9.861753E-2,9.69686E-2,7.7302737E0,8.313761E-2,1.2382659E1,1.14315216E2,7.830902E-2,1.1392104E2,1.1619694E2,4.4152513E-4,3.7074428E-2,-2.0393608E-2,-3.0300798E-4],"split_indices":[0,0,0,0,4,0,4,3,0,3,3,0,0,0,0],"split_type":[0,0,0,0,0,0,0,0,0,0,0,0,0,0,0],"sum_hessian":[4.212007E3,4.1720757E3,3.993095E1,2.3434221E1,4.1486416E3,4.5328965E0,4.144109E3,4.140835E3,3.2737184E0,6.641404E2,3.4766946E3,5.9859283E2,6.5547585E1,3.7194678E2,3.1047478E3],"tree_param":{"num_deleted":"0","num_feature":"5","num_nodes":"15","size_leaf_vector":"1"}},{"base_weights":[3.1117506E-3,-5.6481664E-3,9.827445E-2,9.6477285E-2,-1.0870079E-2,6.417381E-1,-1.2186856E-2,8.179676E-2,2.7019903E-1,-1.2945467E-2,7.678091E-2,4.502304E-1,-1.3421568E-2,-2.441963E-1,-1.0469907E-2,-3.642844E-3,7.135989E-2,-1.2868225E-3,-5.97155E-2,4.266834E-3,-2.320884E-3],"categories":[],"categories_nodes":[],"categories_segments":[],"categories_sizes":[],"default_left":[0,0,0,0,0,0,0,0,0,0,0,0,0,0,0,0,0,0,0,0,0],"id":42,"left_children":[1,3,-1,-1,5,7,9,-1,11,13,-1,15,-1,17,19,-1,-1,-1,-1,-1,-1],"loss_changes":[3.607194E1,2.1124294E1,0E0,0E0,3.5699909E0,3.267398E-1,2.4583774E0,0E0,3.6510548E-1,2.3645358E0,0E0,4.2656767E-1,0E0,3.5644844E0,2.7710245E0,0E0,0E0,0E0,0E0,0E0,0E0],"parents":[2147483647,0,0,1,1,4,4,5,5,6,6,8,8,9,9,11,11,13,13,14,14],"right_children":[2,4,-1,-1,6,8,10,-1,12,14,-1,16,-1,18,20,-1,-1,-1,-1,-1,-1],"split_conditions":[4.4768605E0,2.520064E0,9.827445E-2,9.6477285E-2,8.259496E0,7.7302737E0,1.2382659E1,8.179676E-2,7.328955E-2,8.845654E0,7.678091E-2,3.2833645E0,-1.3421568E-2,8.758139E0,9.5694275E0,-3.642844E-3,7.135989E-2,-1.2868225E-3,-5.97155E-2,4.266834E-3,-2.320884E-3],"split_indices":[0,0,0,0,4,4,4,0,2,4,0,0,0,4,4,0,0,0,0,0,0],"split_type":[0,0,0,0,0,0,0,0,0,0,0,0,0,0,0,0,0,0,0,0,0],"sum_hessian":[4.2018066E3,4.1655522E3,3.625431E1,2.1311687E1,4.1442407E3,7.3657093E0,4.136875E3,4.1810007E0,3.1847086E0,4.133838E3,3.0371E0,2.1253068E0,1.0594016E0,4.2750168E1,4.0910876E3,1.0488669E0,1.0764401E0,2.645083E1,1.6299337E1,7.9065564E2,3.3004321E3],"tree_param":{"num_deleted":"0","num_feature":"5","num_nodes":"21","size_leaf_vector":"1"}},{"base_weights":[2.9505345E-3,-5.0092745E-3,9.791856E-2,9.596216E-2,-9.756951E-3,8.042302E-2,-1.0710901E-2,-1.400484E-2,1.7253746E-1,-9.949709E-3,-2.1026848E-1,1.0191936E-1,1.7455412E-1,-4.233116E-3,1.2942184E-3,1.6961744E-2,-2.9976685E-2,-2.4628427E-3,5.4798704E-2],"categories":[],"categories_nodes":[],"categories_segments":[],"categories_sizes":[],"default_left":[0,0,0,0,0,0,0,0,0,0,0,0,0,0,0,0,0,0,0],"id":43,"left_children":[1,3,-1,-1,5,-1,7,9,11,13,15,17,-1,